tree
version=v4
num_class=1
num_tree_per_iteration=1
label_index=0
max_feature_idx=1548
objective=binary sigmoid:1
feature_names=Column_0 Column_1 Column_2 Column_3 Column_4 Column_5 Column_6 Column_7 Column_8 Column_9 Column_10 Column_11 Column_12 Column_13 Column_14 Column_15 Column_16 Column_17 Column_18 Column_19 Column_20 Column_21 Column_22 Column_23 Column_24 Column_25 Column_26 Column_27 Column_28 Column_29 Column_30 Column_31 Column_32 Column_33 Column_34 Column_35 Column_36 Column_37 Column_38 Column_39 Column_40 Column_41 Column_42 Column_43 Column_44 Column_45 Column_46 Column_47 Column_48 Column_49 Column_50 Column_51 Column_52 Column_53 Column_54 Column_55 Column_56 Column_57 Column_58 Column_59 Column_60 Column_61 Column_62 Column_63 Column_64 Column_65 Column_66 Column_67 Column_68 Column_69 Column_70 Column_71 Column_72 Column_73 Column_74 Column_75 Column_76 Column_77 Column_78 Column_79 Column_80 Column_81 Column_82 Column_83 Column_84 Column_85 Column_86 Column_87 Column_88 Column_89 Column_90 Column_91 Column_92 Column_93 Column_94 Column_95 Column_96 Column_97 Column_98 Column_99 Column_100 Column_101 Column_102 Column_103 Column_104 Column_105 Column_106 Column_107 Column_108 Column_109 Column_110 Column_111 Column_112 Column_113 Column_114 Column_115 Column_116 Column_117 Column_118 Column_119 Column_120 Column_121 Column_122 Column_123 Column_124 Column_125 Column_126 Column_127 Column_128 Column_129 Column_130 Column_131 Column_132 Column_133 Column_134 Column_135 Column_136 Column_137 Column_138 Column_139 Column_140 Column_141 Column_142 Column_143 Column_144 Column_145 Column_146 Column_147 Column_148 Column_149 Column_150 Column_151 Column_152 Column_153 Column_154 Column_155 Column_156 Column_157 Column_158 Column_159 Column_160 Column_161 Column_162 Column_163 Column_164 Column_165 Column_166 Column_167 Column_168 Column_169 Column_170 Column_171 Column_172 Column_173 Column_174 Column_175 Column_176 Column_177 Column_178 Column_179 Column_180 Column_181 Column_182 Column_183 Column_184 Column_185 Column_186 Column_187 Column_188 Column_189 Column_190 Column_191 Column_192 Column_193 Column_194 Column_195 Column_196 Column_197 Column_198 Column_199 Column_200 Column_201 Column_202 Column_203 Column_204 Column_205 Column_206 Column_207 Column_208 Column_209 Column_210 Column_211 Column_212 Column_213 Column_214 Column_215 Column_216 Column_217 Column_218 Column_219 Column_220 Column_221 Column_222 Column_223 Column_224 Column_225 Column_226 Column_227 Column_228 Column_229 Column_230 Column_231 Column_232 Column_233 Column_234 Column_235 Column_236 Column_237 Column_238 Column_239 Column_240 Column_241 Column_242 Column_243 Column_244 Column_245 Column_246 Column_247 Column_248 Column_249 Column_250 Column_251 Column_252 Column_253 Column_254 Column_255 Column_256 Column_257 Column_258 Column_259 Column_260 Column_261 Column_262 Column_263 Column_264 Column_265 Column_266 Column_267 Column_268 Column_269 Column_270 Column_271 Column_272 Column_273 Column_274 Column_275 Column_276 Column_277 Column_278 Column_279 Column_280 Column_281 Column_282 Column_283 Column_284 Column_285 Column_286 Column_287 Column_288 Column_289 Column_290 Column_291 Column_292 Column_293 Column_294 Column_295 Column_296 Column_297 Column_298 Column_299 Column_300 Column_301 Column_302 Column_303 Column_304 Column_305 Column_306 Column_307 Column_308 Column_309 Column_310 Column_311 Column_312 Column_313 Column_314 Column_315 Column_316 Column_317 Column_318 Column_319 Column_320 Column_321 Column_322 Column_323 Column_324 Column_325 Column_326 Column_327 Column_328 Column_329 Column_330 Column_331 Column_332 Column_333 Column_334 Column_335 Column_336 Column_337 Column_338 Column_339 Column_340 Column_341 Column_342 Column_343 Column_344 Column_345 Column_346 Column_347 Column_348 Column_349 Column_350 Column_351 Column_352 Column_353 Column_354 Column_355 Column_356 Column_357 Column_358 Column_359 Column_360 Column_361 Column_362 Column_363 Column_364 Column_365 Column_366 Column_367 Column_368 Column_369 Column_370 Column_371 Column_372 Column_373 Column_374 Column_375 Column_376 Column_377 Column_378 Column_379 Column_380 Column_381 Column_382 Column_383 Column_384 Column_385 Column_386 Column_387 Column_388 Column_389 Column_390 Column_391 Column_392 Column_393 Column_394 Column_395 Column_396 Column_397 Column_398 Column_399 Column_400 Column_401 Column_402 Column_403 Column_404 Column_405 Column_406 Column_407 Column_408 Column_409 Column_410 Column_411 Column_412 Column_413 Column_414 Column_415 Column_416 Column_417 Column_418 Column_419 Column_420 Column_421 Column_422 Column_423 Column_424 Column_425 Column_426 Column_427 Column_428 Column_429 Column_430 Column_431 Column_432 Column_433 Column_434 Column_435 Column_436 Column_437 Column_438 Column_439 Column_440 Column_441 Column_442 Column_443 Column_444 Column_445 Column_446 Column_447 Column_448 Column_449 Column_450 Column_451 Column_452 Column_453 Column_454 Column_455 Column_456 Column_457 Column_458 Column_459 Column_460 Column_461 Column_462 Column_463 Column_464 Column_465 Column_466 Column_467 Column_468 Column_469 Column_470 Column_471 Column_472 Column_473 Column_474 Column_475 Column_476 Column_477 Column_478 Column_479 Column_480 Column_481 Column_482 Column_483 Column_484 Column_485 Column_486 Column_487 Column_488 Column_489 Column_490 Column_491 Column_492 Column_493 Column_494 Column_495 Column_496 Column_497 Column_498 Column_499 Column_500 Column_501 Column_502 Column_503 Column_504 Column_505 Column_506 Column_507 Column_508 Column_509 Column_510 Column_511 Column_512 Column_513 Column_514 Column_515 Column_516 Column_517 Column_518 Column_519 Column_520 Column_521 Column_522 Column_523 Column_524 Column_525 Column_526 Column_527 Column_528 Column_529 Column_530 Column_531 Column_532 Column_533 Column_534 Column_535 Column_536 Column_537 Column_538 Column_539 Column_540 Column_541 Column_542 Column_543 Column_544 Column_545 Column_546 Column_547 Column_548 Column_549 Column_550 Column_551 Column_552 Column_553 Column_554 Column_555 Column_556 Column_557 Column_558 Column_559 Column_560 Column_561 Column_562 Column_563 Column_564 Column_565 Column_566 Column_567 Column_568 Column_569 Column_570 Column_571 Column_572 Column_573 Column_574 Column_575 Column_576 Column_577 Column_578 Column_579 Column_580 Column_581 Column_582 Column_583 Column_584 Column_585 Column_586 Column_587 Column_588 Column_589 Column_590 Column_591 Column_592 Column_593 Column_594 Column_595 Column_596 Column_597 Column_598 Column_599 Column_600 Column_601 Column_602 Column_603 Column_604 Column_605 Column_606 Column_607 Column_608 Column_609 Column_610 Column_611 Column_612 Column_613 Column_614 Column_615 Column_616 Column_617 Column_618 Column_619 Column_620 Column_621 Column_622 Column_623 Column_624 Column_625 Column_626 Column_627 Column_628 Column_629 Column_630 Column_631 Column_632 Column_633 Column_634 Column_635 Column_636 Column_637 Column_638 Column_639 Column_640 Column_641 Column_642 Column_643 Column_644 Column_645 Column_646 Column_647 Column_648 Column_649 Column_650 Column_651 Column_652 Column_653 Column_654 Column_655 Column_656 Column_657 Column_658 Column_659 Column_660 Column_661 Column_662 Column_663 Column_664 Column_665 Column_666 Column_667 Column_668 Column_669 Column_670 Column_671 Column_672 Column_673 Column_674 Column_675 Column_676 Column_677 Column_678 Column_679 Column_680 Column_681 Column_682 Column_683 Column_684 Column_685 Column_686 Column_687 Column_688 Column_689 Column_690 Column_691 Column_692 Column_693 Column_694 Column_695 Column_696 Column_697 Column_698 Column_699 Column_700 Column_701 Column_702 Column_703 Column_704 Column_705 Column_706 Column_707 Column_708 Column_709 Column_710 Column_711 Column_712 Column_713 Column_714 Column_715 Column_716 Column_717 Column_718 Column_719 Column_720 Column_721 Column_722 Column_723 Column_724 Column_725 Column_726 Column_727 Column_728 Column_729 Column_730 Column_731 Column_732 Column_733 Column_734 Column_735 Column_736 Column_737 Column_738 Column_739 Column_740 Column_741 Column_742 Column_743 Column_744 Column_745 Column_746 Column_747 Column_748 Column_749 Column_750 Column_751 Column_752 Column_753 Column_754 Column_755 Column_756 Column_757 Column_758 Column_759 Column_760 Column_761 Column_762 Column_763 Column_764 Column_765 Column_766 Column_767 Column_768 Column_769 Column_770 Column_771 Column_772 Column_773 Column_774 Column_775 Column_776 Column_777 Column_778 Column_779 Column_780 Column_781 Column_782 Column_783 Column_784 Column_785 Column_786 Column_787 Column_788 Column_789 Column_790 Column_791 Column_792 Column_793 Column_794 Column_795 Column_796 Column_797 Column_798 Column_799 Column_800 Column_801 Column_802 Column_803 Column_804 Column_805 Column_806 Column_807 Column_808 Column_809 Column_810 Column_811 Column_812 Column_813 Column_814 Column_815 Column_816 Column_817 Column_818 Column_819 Column_820 Column_821 Column_822 Column_823 Column_824 Column_825 Column_826 Column_827 Column_828 Column_829 Column_830 Column_831 Column_832 Column_833 Column_834 Column_835 Column_836 Column_837 Column_838 Column_839 Column_840 Column_841 Column_842 Column_843 Column_844 Column_845 Column_846 Column_847 Column_848 Column_849 Column_850 Column_851 Column_852 Column_853 Column_854 Column_855 Column_856 Column_857 Column_858 Column_859 Column_860 Column_861 Column_862 Column_863 Column_864 Column_865 Column_866 Column_867 Column_868 Column_869 Column_870 Column_871 Column_872 Column_873 Column_874 Column_875 Column_876 Column_877 Column_878 Column_879 Column_880 Column_881 Column_882 Column_883 Column_884 Column_885 Column_886 Column_887 Column_888 Column_889 Column_890 Column_891 Column_892 Column_893 Column_894 Column_895 Column_896 Column_897 Column_898 Column_899 Column_900 Column_901 Column_902 Column_903 Column_904 Column_905 Column_906 Column_907 Column_908 Column_909 Column_910 Column_911 Column_912 Column_913 Column_914 Column_915 Column_916 Column_917 Column_918 Column_919 Column_920 Column_921 Column_922 Column_923 Column_924 Column_925 Column_926 Column_927 Column_928 Column_929 Column_930 Column_931 Column_932 Column_933 Column_934 Column_935 Column_936 Column_937 Column_938 Column_939 Column_940 Column_941 Column_942 Column_943 Column_944 Column_945 Column_946 Column_947 Column_948 Column_949 Column_950 Column_951 Column_952 Column_953 Column_954 Column_955 Column_956 Column_957 Column_958 Column_959 Column_960 Column_961 Column_962 Column_963 Column_964 Column_965 Column_966 Column_967 Column_968 Column_969 Column_970 Column_971 Column_972 Column_973 Column_974 Column_975 Column_976 Column_977 Column_978 Column_979 Column_980 Column_981 Column_982 Column_983 Column_984 Column_985 Column_986 Column_987 Column_988 Column_989 Column_990 Column_991 Column_992 Column_993 Column_994 Column_995 Column_996 Column_997 Column_998 Column_999 Column_1000 Column_1001 Column_1002 Column_1003 Column_1004 Column_1005 Column_1006 Column_1007 Column_1008 Column_1009 Column_1010 Column_1011 Column_1012 Column_1013 Column_1014 Column_1015 Column_1016 Column_1017 Column_1018 Column_1019 Column_1020 Column_1021 Column_1022 Column_1023 Column_1024 Column_1025 Column_1026 Column_1027 Column_1028 Column_1029 Column_1030 Column_1031 Column_1032 Column_1033 Column_1034 Column_1035 Column_1036 Column_1037 Column_1038 Column_1039 Column_1040 Column_1041 Column_1042 Column_1043 Column_1044 Column_1045 Column_1046 Column_1047 Column_1048 Column_1049 Column_1050 Column_1051 Column_1052 Column_1053 Column_1054 Column_1055 Column_1056 Column_1057 Column_1058 Column_1059 Column_1060 Column_1061 Column_1062 Column_1063 Column_1064 Column_1065 Column_1066 Column_1067 Column_1068 Column_1069 Column_1070 Column_1071 Column_1072 Column_1073 Column_1074 Column_1075 Column_1076 Column_1077 Column_1078 Column_1079 Column_1080 Column_1081 Column_1082 Column_1083 Column_1084 Column_1085 Column_1086 Column_1087 Column_1088 Column_1089 Column_1090 Column_1091 Column_1092 Column_1093 Column_1094 Column_1095 Column_1096 Column_1097 Column_1098 Column_1099 Column_1100 Column_1101 Column_1102 Column_1103 Column_1104 Column_1105 Column_1106 Column_1107 Column_1108 Column_1109 Column_1110 Column_1111 Column_1112 Column_1113 Column_1114 Column_1115 Column_1116 Column_1117 Column_1118 Column_1119 Column_1120 Column_1121 Column_1122 Column_1123 Column_1124 Column_1125 Column_1126 Column_1127 Column_1128 Column_1129 Column_1130 Column_1131 Column_1132 Column_1133 Column_1134 Column_1135 Column_1136 Column_1137 Column_1138 Column_1139 Column_1140 Column_1141 Column_1142 Column_1143 Column_1144 Column_1145 Column_1146 Column_1147 Column_1148 Column_1149 Column_1150 Column_1151 Column_1152 Column_1153 Column_1154 Column_1155 Column_1156 Column_1157 Column_1158 Column_1159 Column_1160 Column_1161 Column_1162 Column_1163 Column_1164 Column_1165 Column_1166 Column_1167 Column_1168 Column_1169 Column_1170 Column_1171 Column_1172 Column_1173 Column_1174 Column_1175 Column_1176 Column_1177 Column_1178 Column_1179 Column_1180 Column_1181 Column_1182 Column_1183 Column_1184 Column_1185 Column_1186 Column_1187 Column_1188 Column_1189 Column_1190 Column_1191 Column_1192 Column_1193 Column_1194 Column_1195 Column_1196 Column_1197 Column_1198 Column_1199 Column_1200 Column_1201 Column_1202 Column_1203 Column_1204 Column_1205 Column_1206 Column_1207 Column_1208 Column_1209 Column_1210 Column_1211 Column_1212 Column_1213 Column_1214 Column_1215 Column_1216 Column_1217 Column_1218 Column_1219 Column_1220 Column_1221 Column_1222 Column_1223 Column_1224 Column_1225 Column_1226 Column_1227 Column_1228 Column_1229 Column_1230 Column_1231 Column_1232 Column_1233 Column_1234 Column_1235 Column_1236 Column_1237 Column_1238 Column_1239 Column_1240 Column_1241 Column_1242 Column_1243 Column_1244 Column_1245 Column_1246 Column_1247 Column_1248 Column_1249 Column_1250 Column_1251 Column_1252 Column_1253 Column_1254 Column_1255 Column_1256 Column_1257 Column_1258 Column_1259 Column_1260 Column_1261 Column_1262 Column_1263 Column_1264 Column_1265 Column_1266 Column_1267 Column_1268 Column_1269 Column_1270 Column_1271 Column_1272 Column_1273 Column_1274 Column_1275 Column_1276 Column_1277 Column_1278 Column_1279 Column_1280 Column_1281 Column_1282 Column_1283 Column_1284 Column_1285 Column_1286 Column_1287 Column_1288 Column_1289 Column_1290 Column_1291 Column_1292 Column_1293 Column_1294 Column_1295 Column_1296 Column_1297 Column_1298 Column_1299 Column_1300 Column_1301 Column_1302 Column_1303 Column_1304 Column_1305 Column_1306 Column_1307 Column_1308 Column_1309 Column_1310 Column_1311 Column_1312 Column_1313 Column_1314 Column_1315 Column_1316 Column_1317 Column_1318 Column_1319 Column_1320 Column_1321 Column_1322 Column_1323 Column_1324 Column_1325 Column_1326 Column_1327 Column_1328 Column_1329 Column_1330 Column_1331 Column_1332 Column_1333 Column_1334 Column_1335 Column_1336 Column_1337 Column_1338 Column_1339 Column_1340 Column_1341 Column_1342 Column_1343 Column_1344 Column_1345 Column_1346 Column_1347 Column_1348 Column_1349 Column_1350 Column_1351 Column_1352 Column_1353 Column_1354 Column_1355 Column_1356 Column_1357 Column_1358 Column_1359 Column_1360 Column_1361 Column_1362 Column_1363 Column_1364 Column_1365 Column_1366 Column_1367 Column_1368 Column_1369 Column_1370 Column_1371 Column_1372 Column_1373 Column_1374 Column_1375 Column_1376 Column_1377 Column_1378 Column_1379 Column_1380 Column_1381 Column_1382 Column_1383 Column_1384 Column_1385 Column_1386 Column_1387 Column_1388 Column_1389 Column_1390 Column_1391 Column_1392 Column_1393 Column_1394 Column_1395 Column_1396 Column_1397 Column_1398 Column_1399 Column_1400 Column_1401 Column_1402 Column_1403 Column_1404 Column_1405 Column_1406 Column_1407 Column_1408 Column_1409 Column_1410 Column_1411 Column_1412 Column_1413 Column_1414 Column_1415 Column_1416 Column_1417 Column_1418 Column_1419 Column_1420 Column_1421 Column_1422 Column_1423 Column_1424 Column_1425 Column_1426 Column_1427 Column_1428 Column_1429 Column_1430 Column_1431 Column_1432 Column_1433 Column_1434 Column_1435 Column_1436 Column_1437 Column_1438 Column_1439 Column_1440 Column_1441 Column_1442 Column_1443 Column_1444 Column_1445 Column_1446 Column_1447 Column_1448 Column_1449 Column_1450 Column_1451 Column_1452 Column_1453 Column_1454 Column_1455 Column_1456 Column_1457 Column_1458 Column_1459 Column_1460 Column_1461 Column_1462 Column_1463 Column_1464 Column_1465 Column_1466 Column_1467 Column_1468 Column_1469 Column_1470 Column_1471 Column_1472 Column_1473 Column_1474 Column_1475 Column_1476 Column_1477 Column_1478 Column_1479 Column_1480 Column_1481 Column_1482 Column_1483 Column_1484 Column_1485 Column_1486 Column_1487 Column_1488 Column_1489 Column_1490 Column_1491 Column_1492 Column_1493 Column_1494 Column_1495 Column_1496 Column_1497 Column_1498 Column_1499 Column_1500 Column_1501 Column_1502 Column_1503 Column_1504 Column_1505 Column_1506 Column_1507 Column_1508 Column_1509 Column_1510 Column_1511 Column_1512 Column_1513 Column_1514 Column_1515 Column_1516 Column_1517 Column_1518 Column_1519 Column_1520 Column_1521 Column_1522 Column_1523 Column_1524 Column_1525 Column_1526 Column_1527 Column_1528 Column_1529 Column_1530 Column_1531 Column_1532 Column_1533 Column_1534 Column_1535 Column_1536 Column_1537 Column_1538 Column_1539 Column_1540 Column_1541 Column_1542 Column_1543 Column_1544 Column_1545 Column_1546 Column_1547 Column_1548
feature_infos=[7.0669331550598145:171.20352172851562] [33.730178833007812:109.04322052001953] none none [0:168] [0:125] [0:255] [477:61809] [16:13104] [4:3605] [509:58099] [0.095673859119415283:0.99927681684494019] [4.8747367858886719:168.37409973144531] [24.577983856201172:104.80441284179688] [0.083677314221858978:0.99642312526702881] [0:188.74278259277344] [0:105.63784027099609] [0:0.99912095069885254] [0:175.73052978515625] [0:111.78788757324219] [0:0.99921375513076782] [15.237536430358887:159.6329345703125] [0:172.06669616699219] [0:171.94276428222656] [0:183.86752319335938] [0:187.20916748046875] [0:199.08927917480469] [0:210.12692260742188] [0:228.13603210449219] [0:211.41639709472656] [0:222.1004638671875] [42.765762329101562:100.20829772949219] [0:110.06072235107422] [0:110.80729675292969] [0:107.33794403076172] [0:113.04921722412109] [0:114.77507781982422] [0:109.72486114501953] [0:115.70304107666016] [0:114.13083648681641] [0:116.60113525390625] [1.0581207275390625:50.617111206054688] [1.4259169101715088:64.64959716796875] [0:152.61676025390625] [-153.13517761230469:-0.4272003173828125] [0.46389007568359375:36.77813720703125] [0.63797402381896973:46.126110076904297] [0:89.460639953613281] [-95.922615051269531:-1.2111053466796875] none none none none none none none none none none none none none none none none none none none none none none none none none none none none none none none none none none none none none none none none none none none none none none none none none none none none none none none none none none none none none none none none none none none none none none none none none none none none none none none none none none none none none none none none none none none none none none none none none none none none none none none none none none none none none none none none none none none none none none none none none none none none none none none none none none none none none none none none none none none none none none none none none none none none none none none none none none none none none none none none none none none none none none none none none none none none none none none none none none none none none none none none none none none none none none none none none none none none none none none none none none none none none none none none none none none none none none none none none none none none none none none none none none [0:0.13660481572151184] [0:0.13204585015773773] none [0:0.14272399246692657] [0:0.14915259182453156] none none none [0:0.10774888843297958] [0:0.10942549258470535] none none [0:0.1005309596657753] none none [0:0.074598737061023712] [0:0.028366360813379288] [0:0.21785241365432739] none [0:0.21785241365432739] none none [0:0.14534583687782288] none none [0:0.05965888500213623] none [0:0.14915259182453156] [0:0.14915259182453156] none [5.978201267353711e-10:0.033186513930559158] [1.7753515671459219e-12:1.6399537727807001e-08] [6.056201527826488e-05:0.6632072925567627] none none none none none none [6.056201527826488e-05:0.6632072925567627] [6.9307731775936077e-10:0.033175904303789139] none [2.3102576796052432e-10:0.011058635078370571] none none none none none none [5.8630379498936236e-05:0.401884526014328] [0:1] none none none none [0:0.0039044467266649008] [0:0.014122984372079372] [0:0.16431458294391632] none none none none none none none none none [0.00011081560660386458:0.81191360950469971] none none none none none none none [0:0.45206993818283081] [0:0.16431458294391632] [2.4953636379443367e-10:0.015283766202628613] [1.5959336716747652e-13:1.4680070492545383e-09] none [4.9373898036719766e-06:0.1519082635641098] [0:0.13103842735290527] [1.3343370483198669e-05:0.16257889568805695] [0:0.16257889568805695] [1.094137928703276e-06:0.082588031888008118] [2.3597735889779869e-06:0.052091322839260101] [0:0.019772082567214966] [0:0.1320887953042984] none none [0:0.13590766489505768] [1.1288758816618838e-10:4.2047508941323031e-06] [1.3292655958926083e-17:4.8454779077999888e-10] [0:0.077328160405158997] [0:0.15389963984489441] [7.5757766353490297e-06:0.16243067383766174] [0:0.15947762131690979] [0:0.1630241870880127] none [0:0.048082556575536728] [0:0.069814637303352356] none none none none none none none none none none [0:0.040260806679725647] [0:0.067659467458724976] [0:0.054771531373262405] none none none none none none [4.006430387448745e-08:0.99999988079071045] none none none none none [0:0.16431458294391632] none none none [0:0.16431458294391632] none none none none [0:0.13577030599117279] [0:0.13590766489505768] [2.9315189749468118e-05:0.16431458294391632] [4.2649017473195272e-07:0.054771531373262405] [0:0.12197873741388321] [0:0.10292906314134598] [0:0.092866525053977966] [0:0.062876321375370026] [0:0.13778127729892731] [0:0.129550501704216] [0:3.0517578125e-05] none none none none none none [0:0.13778127729892731] [0:0.10445582121610641] [0:0.092866525053977966] [0:0.093876689672470093] [0:0.13977742195129395] [-0.96769136190414429:0.13910998404026031] none none none none none none none none none none none none none none none none none none none none none none none none none none none none none none none none none none none none none none none none none none none none none none none none none none none none none none none none none none none none none none none none none none none none none none none none none none none none none none none none none none none none none none none none none none none none none none none none none none none none none none none none none none none none none none none none none none none none none none none none none none none none none none none none none none none none none none none none none none none none none none none none none none none none none none none none none none none none none none none none none none none none none none none none none none none none none none none none none none none none none none none none none none none none none none none none none none none none none none none none none none none none none none none none none none none none none none none none none none none none none none none none none none none none none none none none none none none none none none none none none none none none none none none none none none none none none none none none none none none none none none none none none none none none none none none none none none none none none none none none none none none none none none none none none none none none none none none none none none none none none none none none none none none none none none none none none none none none none none none none none none none none none none none none none none none none none none none none none none none none none none none none none none none none none none none none none none none none none none none none none none none none none none none none none none none none none none none none none none none none none none none none none none none none none none none none none none none none none none none none none none none none none none none none none none none none none none none none none none none none none none none none none none none none none none none none none none none none none none none none none none none none none none none none none none none none none none none none none none none none none none none none none none none none none none none none none none none none none none none none none none none none none none none none none none none none none none none none none none none none none none none none none none none none none none none none none none none none none none none none none none none none none none none none none none none none none none none none none none none none none none none none none none none none none none none none none none none none none none none none none none none none none none none none none none none none none none none none none none none none none none none none none none none none none none none none none none none none none none none none none none none none none none none none none none none none none none none none none none none none none none none none none none none none none none none none none none none none none none none none none none none none none none none none none none none none none none none none none none none none none none none none none none none none none none none none none none none none none none none none none none none none none none none none none none none none none none none none none none none none none none none none none none none none none none none none none none none none none none none none none none none none none none none none none none none none none none none none none none none none none none none none none none none none none none none none none none none none none none none none none none none none none none none none none none none none none none none none none none none none none none none none none none none none none none none none none none none none none none none none none none none none none none none none none none none none none none none none none none none none none none none none none none none none none none none none none none none none none none none none none none none none none none none none none none none none none none none none none none none none none none none none none none none none none none none none none none none none none none none none none none none none none none none none none none none none none none none none none none none none none none none none none none none none none none none none none none none none none none none none none none none none none none none none none none none none none none none none none none none none none none none none none none none none none none none none none none none none none none none none none none none none none none none none none none none none none none none none none none none none none none none none none none none none none none none none none none none none none none none none none none none none none none none none none none none none none none none none none none none none none none none none none none none none none none none none none none none none none none none none none none none none none none none none none none none none none none none none none none none none none none none none none none none none none none none none none none none none none none none none none none none none none none none none none none none none none none none none none none none none none none none none none none none none none none none none none none none none
tree_sizes=1156 1459 1239 1133 1127 1233 1133 1129 1132 1023 1023 1247 1022 1126 1237 1226 1129 1117 1029 1020 1120 1120 1122 1229 1122 1125 1121 1127 1022 1126 1123 1362 1025 1130 1239 1013 1124 1132 1127 1124 1123 1123 1024 1357 1131 1127 1135 1131 1127 1127 1127 1131 1131 1130 1132 1122 1031 1017 1125 1345 1243 1236 1235 1343 1025 1125 1127 1142 1025 1125 1343 1252 1139 1025 1020 1128 1251 1252 1243 1144 1459 1241 1118 1238 1134 1124 1144 1127 1142 1243 1132 1024 1136 1250 1577 1134 1142 1458 1252 1121 1345 1349 1131 1136 1240 1251 1462 1357 1250 1353 1468 1467 1119 907 1238 1121 1459 1022 1143 1248 1032 1034 921 1445 912 923 1334 1031 924 1453 1137 1030 1123 1134 1359 1353 1122 1128 1034 1128 1142 1029 1131 1133 1021 1568 1026 1030 1017 1137 1017 1019 1029 1455 1126 1026 1577 1470 1577 1362 1025 1483 1250 1251 1581 1470 1675 1029 1473 1573 1343 1352 1359 1656 1369 1368 1356 1346 1465 1342 1690 1353 1464 1473 1805 1126 1564 1691 1458 1139 1256 1020 1131 1255 1029 1134 1025 1027 1687 1032 1351 1342 1031 1029 1364 1128 1452 1024 1576 1684 1780 1565 1695 1703 1686 1247 1566 1680 1681 1566 1682 1343 1241 1685 1802 1245 1130 1139 1249 1801 1695 1787 1572 1907 1903 1246 1671 1910 1464 1685 2016 2002 1589 1791 1695 1599 1892 1456 920 1245 1139 1359 1560 1469 923 920 1582 1355 1468 1896 1371 1578 1680 1692 1134 1780 1692 1135 1030 2021 1570 1485 1350 1689 1802 1570 1684 1348 1583 1806 1258 1576 1467 1455 1567 1795 1687 1793 1245 1678 1802 1688 1904 1675 1680 1810 2017 1786 2019 1585 1470 1355 1456 1557 1585 1562 1586 1451 1791 1595 1455 1592 1682 1559 1465 1686 1372 1792 1787 2133 1689 1686 1572 1673 1461 1574 1704 1571 1902 1794 1671 1687 1460 1458 1694 1581 1579 1679 1894 1674 1688 1560 1665 1464 1690 1455 1787 1676 1997 1787 1565 1361 1560 1678 1570 1573 1451 1350 1459 1561 1459 1451 1353 1353 1686 1684 1887 1903 1465 1465 1895 1677 1697 2017 1803 1577 2126 1469 1901 2033 1575 1591 1698 1588 1789 1594 1793 1586 1700 1583 1249 2230 1255 2241 1692 1923 1918 2021 2010 2019 1579 2115 1807 2238 1681 2018 2239 1790 2131 1790 1699 2030 2224 1684 1907 2132 1708 1698 2031 2232 1716 1815 1816 1702 1813 1803 1589 2022 2040 1696 1483 1914 1590 1810 2109 1807 1696 1700 1811 1918 1572 1480 1809 2005 1930 2110 2026 1909 2139 1914 2248 2218 1793 1806 2025 1802 2128 2340 2036 1693 1917 1585 1683 1582 1811 2341 1585 1799 1907 1560 1568 1788 1687 1462 1912 1692 1688 1800 1673 1687 1560 2119 1347 1689 2014 1678 1794 1892 2228 1570 1682 2128 1569 1576 1703 1691 1585 1803 1894 1905 1582 2328 2118 1483 1693 1695 1794 1921 1908 2104 1691 1824 1690 1797 1696 1910 1799 1793 1702 1461 1786 1690 1788 1690 2120 1574 1685 1565 1679 1905 1902 1679 2002 1677 1695 1575 1907 2002 2004 1675 2125 2019 1692 2149 1585 1474 1460 2016 2006 1801 1586 1903 1479 2143 1689 1466 1675 1454 2228 1586 1803 1679 2006 1791 1903 1792 2007 2095 1465 1576 1689 1564 1684 1709 1810 2013 1907 1810 1472 1705 1591 1258 1240 1586 2140 2003 1919 1465 1681 2120 1569 1465 1807 1793 1577 1573 1681 2010 2017 1572 1688 1474 1476 1477 2003 1895 1683 1799 2345 1573 1580 1686 1795 1790 1900 1574 1579 1698 1783 1792 1575 1908 1693 1690 1896 1892 1790 1775 2115 1787 1570 1592 2135 1800 1361 1997 2036 1585 1806 1586 1798 1469 1591 1592 1784 2002 2132 1363 1586 1481 1778 1478 1818 1987 1571 1460 2346 1461 2348 1575 2012 1569 1578 2459 2137 2032 2235 1791 2127 1900 2581 2345 2122 2008 2355 1800 2233 2239 1891 2002 1912 2778 1591 1803 2112 1810 1580 1779 1808 1690 1582 1706 1706 1807 2131 2124 2009 1802 1903 1582 1700 2131 1939 1252 1819 1777 1696 1782 2006 1807 2005 2691 1473 1677 1353 1688 2357 1694 1685 2452 1463 1449 1254 1589 1562 1897 1587 1807 1920 1920 1922 1818 2573 2235 1699 2137 1909 2024 2031 2135 2123 1810 1683 1804 1902 1801 2230 2341 1907 1902 2231 1681 2011 2128 2138 1813 2245 2245 1915 1682 1692 1478 2023 2360 2241 2023 1694 1590 2155 1354 1147 1807 1590 1468 1911 1688 1147 1606 1815 2023 2012 2025 2013 1909 2253 2025 1927 2042 1803 2030 1924 2027 2135 2021 1577 1919 2241 2247 1476 1480 1261 1685 2027 1593 1917 1592

Tree=0
num_leaves=10
num_cat=0
split_feature=8 420 331 11 22 48 39 33 31
split_gain=793.754 192.165 25.2104 7.41902 1.76254 1.08387 3.41987 0.477256 0.27942
threshold=165.50000000000003 2.1056775212358052e-09 0.00074402717291377496 0.99799892306327831 129.55418395996097 -3.3800697326660152 77.175354003906264 72.873615264892592 83.690196990966811
decision_type=2 2 2 2 2 2 2 2 2
left_child=-1 2 3 4 5 7 -7 -2 -9
right_child=1 -3 -4 -5 -6 6 -8 8 -10
leaf_value=3.473402132766414 3.5868820353531854 3.5331700484160691 3.5722157886819601 3.5782771157195143 3.5840137288086287 3.5810242262128931 3.5897503418977426 3.5897503418977426 3.5881369194664292
leaf_weight=1.8659026715904463 1.8921829909086145 1.9184633102267969 2.7857138477265826 1.8921829909086216 1.8921829909086216 1.8659026715904534 4.5464952420443296 52.639479594305158 3.3638808727264395
leaf_count=71 72 73 106 72 72 71 173 2003 128
internal_value=3.58393 3.58677 3.58822 3.58887 3.58918 3.58933 3.58721 3.58956 3.58965
internal_weight=74.6624 72.7965 70.878 68.0923 66.2001 64.3079 6.4124 57.8955 56.0034
internal_count=2841 2770 2697 2591 2519 2447 244 2203 2131
is_linear=0
shrinkage=1


Tree=1
num_leaves=12
num_cat=0
split_feature=8 395 361 279 8 405 317 375 48 405 361
split_gain=754.622 19.516 12.0237 24.169 87.6862 8.59524 4.21413 3.18003 1.62686 0.520758 1.51797
threshold=159.50000000000003 0.35685126483440405 2.3374498425710047e-07 3.2697769711376175e-05 334.00000000000006 3.0486920877592642e-05 1.8857932104765498e-07 0.014024995733052494 -4.6668586730957022 3.0193228667485531e-05 9.1318666818551733e-05
decision_type=2 2 2 2 2 2 2 2 2 2 2
left_child=-1 2 3 6 -5 -6 -2 9 -7 10 -4
right_child=1 -3 7 4 5 8 -8 -9 -10 -11 -12
leaf_value=-0.10547007653420377 0.0055779581283830395 -0.014694633749304799 -0.0002333366127462708 -0.034584222567808 -0.0085517355379683482 0.0055782230719437411 -0.0030115414196310504 -0.0010788156312021612 -0.00018610949514614086 0.0055772276308404716 0.0055772897031636558
leaf_weight=1.9546478930860747 14.971134010702377 1.8739559967070807 1.8677781838923682 2.432385651394724 1.9205130599439133 6.1568910703062985 1.8954971507191647 2.445859793573617 1.8833908010274178 32.738548355177045 4.5515771508216858
leaf_count=67 570 71 71 92 73 234 72 93 72 1252 174
internal_value=-0.000234891 0.00259305 0.00305022 0.000384421 -0.00537004 0.00176394 0.00461266 0.00492507 0.00422796 0.00530008 0.00388663
internal_weight=74.6922 72.7375 70.8636 29.2598 12.3932 9.96079 16.8666 41.6038 8.04028 39.1579 6.41936
internal_count=2841 2774 2703 1113 471 379 642 1590 306 1497 245
is_linear=0
shrinkage=0.00542736


Tree=2
num_leaves=10
num_cat=0
split_feature=331 9 420 11 395 432 1 23 315
split_gain=630.979 111.319 118.303 7.13913 3.69667 1.89005 0.932026 1.09036 0.524158
threshold=0.00074402728932909678 73.000000000000014 1.9602208745084231e-09 0.99799892306327831 0.35625733435153967 1.8086933778249662e-05 74.436763763427749 127.40293121337892 0.0037147146649658684
decision_type=2 2 2 2 2 2 2 2 2
left_child=1 -1 3 4 5 -3 7 -7 -8
right_child=-2 2 -4 -5 -6 6 8 -9 -10
leaf_value=-0.03745685664478967 -0.098470351221481262 -0.00021302950660106421 -0.037604931475867423 -0.0056540255046339562 -0.0021487118763590381 -0.00025439946635815835 0.0055768436081382851 0.0055780899288727179 0.0026405345089968351
leaf_weight=2.0171430800110093 1.8775144685059775 1.8740473352372635 2.0105676222592583 1.9322229865938414 2.1058861818164578 1.8611754644662135 57.275543371215463 1.9162046462297437 1.8485504277050484
leaf_count=71 65 71 73 72 78 71 2196 73 71
internal_value=-0.000232584 0.00229953 0.00343183 0.00463083 0.00492796 0.00515803 0.00531805 0.00270433 0.00548504
internal_weight=74.7189 72.8413 70.8242 68.8136 66.8814 64.7755 62.9015 3.77738 59.1241
internal_count=2841 2776 2705 2632 2560 2482 2411 144 2267
is_linear=0
shrinkage=0.00542736


Tree=3
num_leaves=9
num_cat=0
split_feature=8 420 331 17 279 352 368 32
split_gain=684.668 204.022 24.2099 7.84361 8.05185 1.05772 3.55837 0.528295
threshold=141.50000000000003 2.1056775212358052e-09 0.00074385904008522641 0.99873828887939464 3.2716745408833965e-05 0.00025707116583362227 0.005160008557140828 72.660762786865249
decision_type=2 2 2 2 2 2 2 2
left_child=-1 2 3 5 -5 7 -7 -2
right_child=1 -3 -4 4 -6 6 -8 -9
leaf_value=-0.10102242498167009 0.0026117327578206147 -0.049350813668142597 -0.0098332749559838836 0.0055777282396085532 -0.0099237102785595267 0.0055758270868870386 -0.0032015629844641606 0.0055763749361237092
leaf_weight=1.9338384009897698 1.8301616739481676 2.1730934660881749 3.5204523075371972 1.8620375301688903 2.1004106383770704 5.1055725347250691 1.8547341898083685 54.364015717059374
leaf_count=57 70 75 130 71 79 197 71 2091
internal_value=-0.000230341 0.00244669 0.00404019 0.00476789 -0.00263926 0.00523263 0.00323689 0.00547982
internal_weight=74.7443 72.8105 70.6374 67.1169 3.96245 63.1545 6.96031 56.1942
internal_count=2841 2784 2709 2579 150 2429 268 2161
is_linear=0
shrinkage=0.00542736


Tree=4
num_leaves=9
num_cat=0
split_feature=8 420 330 17 366 395 32 48
split_gain=617.786 195.188 22.7457 10.4839 11.4727 1.81538 0.505555 0.526731
threshold=141.50000000000003 2.1367768665570001e-09 0.00074385904008522641 0.99873828887939464 9.2231539072784596e-10 0.35625733435153967 72.530899047851577 -2.6572113037109371
decision_type=2 2 2 2 2 2 2 2
left_child=-1 2 3 5 -5 6 -2 -8
right_child=1 -3 -4 4 -6 -7 7 -9
leaf_value=-0.091476796414263303 0.0025651979062264775 -0.049554069288264863 -0.0091851378159184937 0.0055793084082241453 -0.012657208406689787 0.00013044152083980766 0.0055753761949728009 0.0026243501932385871
leaf_weight=2.1234839111566535 1.8019888345152129 2.0663439761847249 3.6747454740107051 1.9839210230857123 2.0830999277532101 1.990991262719034 57.204311307519667 1.8389144707471192
leaf_count=57 69 68 135 75 78 74 2214 71
internal_value=-0.000228065 0.00243925 0.00396148 0.00468358 -0.00376131 0.00523016 0.00539704 0.00548347
internal_weight=74.7678 72.6443 70.578 66.9032 4.06702 62.8362 60.8452 59.0432
internal_count=2841 2784 2716 2581 153 2428 2354 2285
is_linear=0
shrinkage=0.00542736


Tree=5
num_leaves=10
num_cat=0
split_feature=331 420 9 17 366 395 13 21 48
split_gain=516.693 104.654 104.713 7.62682 7.84642 1.87537 0.736149 1.32508 0.52097
threshold=0.00074402728932909678 2.1056775212358052e-09 84.500000000000014 0.99873828887939464 9.2231539072784596e-10 0.35625733435153967 75.933761596679702 111.72985458374025 -2.6698837280273433
decision_type=2 2 2 2 2 2 2 2 2
left_child=1 2 -1 5 -5 6 7 -4 -8
right_child=-2 -3 3 4 -6 -7 8 -9 -10
leaf_value=-0.030878755420789678 -0.081246430006242418 -0.035225534410531674 -0.00036742530846546926 0.0055771903550464637 -0.0096859641778567936 -0.00018849184587125032 0.0055748068487490865 0.00557616493336231 0.0026524853264250055
leaf_weight=2.5279796700924626 2.2488499507307997 2.1265928186476222 1.8259042352437962 1.8550149966031306 2.1327751409262419 1.8809283338487137 55.535091439262025 2.7980726063251495 1.8570303395390571
leaf_count=80 65 68 70 71 79 70 2158 108 72
internal_value=-0.000225894 0.00228589 0.0034188 0.00469601 -0.00258595 0.00515048 0.00531241 0.00322918 0.00548025
internal_weight=74.7882 72.5394 70.4128 67.8848 3.98779 63.897 62.0161 4.62398 57.3921
internal_count=2841 2776 2708 2628 150 2478 2408 178 2230
is_linear=0
shrinkage=0.00542736


Tree=6
num_leaves=9
num_cat=0
split_feature=10 420 330 11 395 324 305 414
split_gain=530.763 206.713 13.7066 11.584 3.95212 1.81292 0.499555 0.528921
threshold=7623.5000000000009 2.313328972824991e-09 0.00074385904008522641 0.99799892306327831 0.35625733435153967 6.0474118072306744e-05 0.0046965067740529784 0.058116976171731956
decision_type=2 2 2 2 2 2 2 2
left_child=-1 2 3 4 5 -2 7 -7
right_child=1 -3 -4 -5 -6 6 -8 -9
leaf_value=-0.079046561775139648 0.00013879466967826149 -0.050070598338423672 -0.0061295089441792466 -0.0085327795045058424 -0.0024916724724950035 0.005574513293168013 0.0025974651256540195 0.0026104052957968979
leaf_weight=2.4344835951924315 1.9963012970983971 2.1438634023070327 3.7051545046269885 1.9224249832332123 2.0165760125964871 56.934944866225123 1.823137767612933 1.8302985131740559
leaf_count=61 77 64 133 71 75 2218 71 71
internal_value=-0.000223857 0.00242759 0.0040302 0.00459606 0.00498675 0.00522772 0.00539539 0.00548219
internal_weight=74.8072 72.3727 70.2288 66.5237 64.6013 62.5847 60.5884 58.7652
internal_count=2841 2780 2716 2583 2512 2437 2360 2289
is_linear=0
shrinkage=0.00542736


Tree=7
num_leaves=9
num_cat=0
split_feature=8 420 331 17 279 395 9 10
split_gain=499.443 169.959 22.8929 7.72676 7.66396 1.78934 0.520558 1.60133
threshold=141.50000000000003 2.1056775212358052e-09 0.00074385904008522641 0.99873828887939464 3.2716745408833965e-05 0.35625733435153967 497.00000000000006 17112.000000000004
decision_type=2 2 2 2 2 2 2 2
left_child=-1 2 3 5 -5 6 -2 -8
right_child=1 -3 -4 4 -6 -7 7 -9
leaf_value=-0.074589860002945291 0.0055733272566539397 -0.041005795645947217 -0.0091577390415628658 0.0055760327852201119 -0.0094946636296262127 0.00018847226929627535 0.0055722988299997667 -0.00036522827451125682
leaf_weight=2.5687332749366751 53.183343809098005 2.5604439731687298 3.6796380672603837 1.8415345512330521 2.1595348194241524 2.0116010475903741 4.9907764717936507 1.8280478604137895
leaf_count=57 2086 75 130 71 79 74 197 72
internal_value=-0.000221822 0.00242203 0.00401749 0.00475187 -0.00255822 0.00522351 0.00539232 0.00398052
internal_weight=74.8237 72.2549 69.6945 66.0148 4.00107 62.0138 60.0022 6.81882
internal_count=2841 2784 2709 2579 150 2429 2355 269
is_linear=0
shrinkage=0.00542736


Tree=8
num_leaves=9
num_cat=0
split_feature=331 420 331 20 405 352 368 32
split_gain=436.16 92.1317 87.3276 6.7517 10.3952 1.08898 3.58414 0.46846
threshold=0.00074402728932909678 2.1056775212358052e-09 0.00073033588705584418 0.99829286336898815 3.0204907488950997e-05 0.00025707116583362227 0.005160008557140828 72.530899047851577
decision_type=2 2 2 2 2 2 2 2
left_child=1 2 3 5 -5 7 -7 -1
right_child=-2 -3 -4 4 -6 6 -8 -9
leaf_value=0.002910442980636866 -0.069113552725012586 -0.031005605818702899 -0.023719181543130269 0.0055776396239705121 -0.011070335035220535 0.0055718497674616934 -0.0033145928805005903 0.0055737361985699297
leaf_weight=2.0192155223339787 2.6123615130782118 2.370229009538888 3.3305954411625853 2.539922220632433 1.9553313385695217 4.9504304993897668 1.8315555788576601 53.227275220677257
leaf_count=72 65 68 111 97 72 196 71 2089
internal_value=-0.000219872 0.00227201 0.00340116 0.00475897 -0.00166384 0.00522444 0.00317196 0.00547639
internal_weight=74.8369 72.2246 69.8543 66.5237 4.49525 62.0285 6.78199 55.2465
internal_count=2841 2776 2708 2597 169 2428 267 2161
is_linear=0
shrinkage=0.00542736


Tree=9
num_leaves=8
num_cat=0
split_feature=10 420 331 324 395 20 48
split_gain=452.921 190.304 20.5521 15.4935 4.22147 3.38636 0.530271
threshold=6670.5000000000009 3.5055197633582229e-09 0.00074385904008522641 6.0474118072306744e-05 0.35685126483440405 0.99882847070693981 -2.6572113037109371
decision_type=2 2 2 2 2 2 2
left_child=-1 2 3 -2 5 6 -5
right_child=1 -3 -4 4 -6 -7 -8
leaf_value=-0.071687488546577333 -0.0081339406414972903 -0.051181694673631865 -0.0084426127578732194 0.0055727198090764745 -0.0029979093773758866 -0.0010015686136844717 0.0026034755993693585
leaf_weight=2.5238448884338132 2.769860850647091 1.9097878970205773 3.8641951698809853 57.586476072669022 1.8965921718627203 2.4721313286572686 1.8279080595821202
leaf_count=52 104 50 130 2273 69 91 72
internal_value=-0.000218003 0.00227592 0.00372575 0.00443227 0.00497797 0.0052224 0.00548137
internal_weight=74.8508 72.327 70.4172 66.553 63.7831 61.8865 59.4144
internal_count=2841 2789 2739 2609 2505 2436 2345
is_linear=0
shrinkage=0.00542736


Tree=10
num_leaves=8
num_cat=0
split_feature=8 420 330 16 405 395 315
split_gain=419.541 151.426 20.7201 6.6156 12.6179 1.93101 0.530867
threshold=141.50000000000003 2.1056775212358052e-09 0.00074385904008522641 73.92343902587892 3.0193235943443145e-05 0.35625733435153967 0.0037147146649658684
decision_type=2 2 2 2 2 2 2
left_child=-1 2 3 4 -2 6 -5
right_child=1 -3 -4 5 -6 -7 -8
leaf_value=-0.063194030724380262 0.0055753511925316235 -0.036474431656005099 -0.0080055423903906409 0.0055710072270835674 -0.010424057334918939 -4.788625845620538e-05 0.0025934740989058784
leaf_weight=2.9913363382220259 3.7397882975637904 2.8343943990766993 3.9889102615416041 55.183836968615651 2.3734433017671108 1.9272471088916052 1.8220387585461129
leaf_count=57 145 75 135 2198 88 71 72
internal_value=-0.000216114 0.00240513 0.00400142 0.00473774 -0.00063637 0.0052952 0.00547584
internal_weight=74.861 71.8697 69.0353 65.0464 6.11323 58.9331 57.0059
internal_count=2841 2784 2709 2574 233 2341 2270
is_linear=0
shrinkage=0.00542736


Tree=11
num_leaves=10
num_cat=0
split_feature=10 330 324 352 418 431 411 352 417
split_gain=396.464 138.342 26.4321 9.09615 37.979 5.16779 0.83398 1.2592 0.542566
threshold=6670.5000000000009 0.00074403092730790388 6.0474118072306744e-05 0.00024354637571377682 0.041783776134252555 2.0052891159139111e-05 0.12193914875388147 3.5746246794587939e-05 0.058116976171731956
decision_type=2 2 2 2 2 2 2 2 2
left_child=-1 2 -2 5 -5 -4 8 -8 -7
right_child=1 -3 3 4 -6 6 7 -9 -10
leaf_value=-0.06318924256374947 -0.012083831070054235 -0.043926351132519775 -0.0023505988554097714 0.0055702009716871656 -0.021891704493621253 0.0055742663580302509 0.0055725817794942357 -0.00048635136944687342 0.0025287060634435615
leaf_weight=2.8332929592579594 3.070663394406437 1.8607493694871653 2.7372498828917733 5.9703620094805947 1.973825531080365 50.529240801930428 2.3174871969968072 1.7913451828062532 1.7838719487190235
leaf_count=52 111 50 104 239 67 1984 92 71 71
internal_value=-0.000214322 0.00226262 0.00348738 0.00419992 -0.00125303 0.00493217 0.00528549 0.00293104 0.00547041
internal_weight=74.8681 72.0348 70.174 67.1034 7.94419 59.1592 56.4219 4.10883 52.3131
internal_count=2841 2789 2739 2628 306 2322 2218 163 2055
is_linear=0
shrinkage=0.00542736


Tree=12
num_leaves=8
num_cat=0
split_feature=8 420 331 324 395 20 31
split_gain=371.612 157.198 19.9661 14.6227 4.12571 3.3122 0.536362
threshold=141.50000000000003 3.6519764989861873e-09 0.00074385904008522641 6.0474118072306744e-05 0.35685126483440405 0.99882847070693981 77.00006484985353
decision_type=2 2 2 2 2 2 2
left_child=-1 2 3 -2 5 6 -5
right_child=1 -3 -4 4 -6 -7 -8
leaf_value=-0.056361725744823454 -0.0074865534507123242 -0.04685363299211355 -0.0081567245994628255 0.0025589323588947246 -0.002842333162231616 -0.00088071070214970875 0.0055699895763501074
leaf_weight=3.318140633404254 2.9057254381477824 1.8597996346652497 3.9433521833270779 1.7979534845799197 1.9315326865762461 2.5175776667892924 56.600775977596641
leaf_count=57 106 45 130 69 70 92 2272
internal_value=-0.000212541 0.00239114 0.00370519 0.00441657 0.00496691 0.00521452 0.00547729
internal_weight=74.8749 71.5567 69.6969 65.7536 62.8478 60.9163 58.3987
internal_count=2841 2784 2739 2609 2503 2433 2341
is_linear=0
shrinkage=0.00542736


Tree=13
num_leaves=9
num_cat=0
split_feature=331 8 419 276 17 395 39 29
split_gain=373.926 92.2694 28.6405 42.2418 5.96429 1.69223 0.640873 4.22864
threshold=0.00074402728932909678 159.50000000000003 3.0193225029506724e-05 2.019104886130663e-05 0.99873828887939464 0.34819000959396368 72.928123474121108 81.067230224609389
decision_type=2 2 2 2 2 2 2 2
left_child=1 -1 4 -4 5 6 7 -3
right_child=-2 2 3 -5 -6 -7 -8 -9
leaf_value=-0.032577893386538097 -0.057613586970515454 0.0055680992648440009 -0.026658668661476332 0.0055940367971596926 -0.0021698455735764408 0.00026033107866823798 0.0055700154052033884 -0.0035227754181790484
leaf_weight=2.1236146725714198 3.1687498278915873 9.5321217086166126 2.1840380374342194 2.6444986090064049 3.5004616770893326 2.0404900126159182 46.681888058781624 1.7902551162987936
leaf_count=41 64 387 61 95 130 77 1873 71
internal_value=6.17333e-05 0.00265415 0.00374842 -0.00899447 0.0047167 0.00511817 0.00528906 0.00413068
internal_weight=73.6661 70.4974 68.3738 4.82854 63.5452 60.0448 58.0043 11.3224
internal_count=2799 2735 2694 156 2538 2408 2331 458
is_linear=0
shrinkage=0.00542736


Tree=14
num_leaves=10
num_cat=0
split_feature=330 10 419 276 20 48 39 29 37
split_gain=339.082 75.4845 27.3937 42.9245 7.93054 1.09976 3.52179 0.404343 1.74881
threshold=0.00074402728932909678 9083.0000000000018 3.0193225029506724e-05 1.0000000180025095e-35 0.99882847070693981 -3.3800697326660152 76.302482604980483 120.30150985717775 75.506599426269545
decision_type=2 2 2 2 2 2 2 2 2
left_child=1 -1 4 -4 5 7 -7 -3 -9
right_child=-2 2 3 -5 -6 6 -8 8 -10
leaf_value=-0.026476142316605011 -0.052498497042924773 0.0055691458104024129 -0.026455606710218967 0.0055954844219418161 -0.0043287303776536447 -0.0034124995757365164 0.0055688181189412992 0.0055758078908940724 -0.00047515842662997261
leaf_weight=2.5279996655881396 3.4462864100933066 45.405886277556412 2.1972035262733689 2.7984656635671854 2.7376841455698004 1.8123157918453277 4.4289156310260296 6.4997720662504417 1.7955917697399852
leaf_count=59 69 1833 59 100 101 72 179 255 72
internal_value=6.19521e-05 0.00264213 0.00372983 -0.00850128 0.00470466 0.00511723 0.00296084 0.00536785 0.00426603
internal_weight=73.6501 70.2038 67.6758 4.99567 62.6802 59.9425 6.24123 53.7013 8.29536
internal_count=2799 2730 2671 159 2512 2411 251 2160 327
is_linear=0
shrinkage=0.00542736


Tree=15
num_leaves=10
num_cat=0
split_feature=10 420 362 279 431 41 40 48 29
split_gain=312.893 137.693 12.3534 18.905 54.2001 8.77728 1.40707 0.553629 0.489484
threshold=6670.5000000000009 3.6519764989861873e-09 2.0726782850033491e-06 0.0007145674026105554 0.04088361747562886 2.6033409833908085 76.067024230957045 -2.7042388916015621 128.77838897705081
decision_type=2 2 2 2 2 2 2 2 2
left_child=-1 2 3 5 -5 -2 -6 -4 -7
right_child=1 -3 7 4 6 8 -8 -9 -10
leaf_value=-0.052978420663210922 -0.0061648040262183819 -0.040923185475701437 0.005568741763466948 -0.029469102668395433 0.0055781226259779722 0.0055785477926989643 -0.00052104523414200443 0.0024379673064839152 0.0025535341866436061
leaf_weight=3.136547837406396 2.3091717530041995 2.0946396626532069 42.64223737642169 2.1644348762929431 2.9736709408462048 13.007090827450154 1.7817517444491384 1.7313170973211516 1.7928349431604136
leaf_count=48 85 45 1731 65 115 501 71 69 69
internal_value=6.21203e-05 0.00242199 0.00374932 0.000615022 -0.0069546 0.00367659 0.0032929 0.00544659 0.0052121
internal_weight=73.6337 70.4971 68.4025 24.029 6.91986 17.1091 4.75542 44.3736 14.7999
internal_count=2799 2751 2706 906 251 655 186 1800 570
is_linear=0
shrinkage=0.00542736


Tree=16
num_leaves=9
num_cat=0
split_feature=331 7 419 276 17 317 297 35
split_gain=323.173 227.669 27.0386 40.0413 6.04406 1.15019 3.56392 0.443602
threshold=0.00073033588705584418 2007.5000000000002 3.0193225029506724e-05 1.0000000180025095e-35 0.99873828887939464 0.00019183757831342521 0.130363903939724 72.929546356201186
decision_type=2 2 2 2 2 2 2 2
left_child=2 -2 4 -4 5 7 -7 -1
right_child=1 -3 3 -5 -6 6 -8 -9
leaf_value=0.0030278258093813558 -0.060465853373431383 0.0019088975320211107 -0.025003165935624763 0.0055952052840088327 -0.0021307424235068526 -0.0034244764154714694 0.0055656337506547974 0.0055703288288752387
leaf_weight=2.1076563391834489 4.1751031130552283 2.9357389286160469 2.3003127649426451 2.7849252466112375 3.5177540816366664 1.8095247205346812 4.6029363423585892 49.379600809887052
leaf_count=77 70 100 59 100 130 71 190 2002
internal_value=6.23304e-05 -0.0347142 0.00378083 -0.008246 0.00477663 0.00519629 0.00302873 0.00546625
internal_weight=73.6136 7.11084 66.5027 5.08524 61.4175 57.8997 6.41246 51.4873
internal_count=2799 170 2629 159 2470 2340 261 2079
is_linear=0
shrinkage=0.00542736


Tree=17
num_leaves=9
num_cat=0
split_feature=331 8 420 17 23 395 9 359
split_gain=311.181 280.63 56.6486 5.20247 2.6178 2.04576 0.544105 1.71661
threshold=0.00073033588705584418 409.50000000000006 2.1056775212358052e-09 0.99873828887939464 127.39068984985353 0.36288569867610937 497.00000000000006 0.020839176140725616
decision_type=2 2 2 2 2 2 2 2
left_child=2 -2 3 5 -5 6 -1 -8
right_child=1 -3 -4 4 -6 -7 7 -9
leaf_value=0.0055695647823880744 -0.063621112840022906 0.0039495812154007187 -0.020689284612997998 -0.005773389717910451 0.0030019507084644874 -0.00057575673036599562 -0.00075009469499810852 0.0055646401360511617
leaf_weight=51.268994312733412 4.0611355789005747 3.2668803241103888 2.6756953410804263 1.9116889499127854 2.1028132364153862 1.749488154426216 1.7186888493597496 4.8362924195826054
leaf_count=2087 62 108 64 71 78 57 71 201
internal_value=6.26157e-05 -0.0334976 0.003774 0.00480338 -0.00117683 0.00520637 0.00538132 0.00390894
internal_weight=73.5917 7.32802 66.2637 63.588 4.0145 59.5735 57.824 6.55498
internal_count=2799 170 2629 2565 149 2416 2359 272
is_linear=0
shrinkage=0.00542736


Tree=18
num_leaves=8
num_cat=0
split_feature=331 367 420 20 317 361 9
split_gain=300.074 205.64 55.4242 6.65443 1.17673 3.60087 0.524558
threshold=0.00073033588705584418 2.6026122717463107e-13 2.1056775212358052e-09 0.99882847070693981 0.00019183757831342521 0.00063718855381011974 703.00000000000011
decision_type=2 2 2 2 2 2 2
left_child=2 -2 3 4 6 -6 -1
right_child=1 -3 -4 -5 5 -7 -8
leaf_value=0.0055708293716140635 -0.0020817613675335415 -0.058893863565712565 -0.020192050799393204 -0.0027638677299661068 -0.0035234816925986839 0.0055645532958484133 0.0026288427334682624
leaf_weight=51.864679623395205 3.5198290236294261 4.0203321315348148 2.7265643179416648 3.2508265264332286 1.7901332546025504 4.5443154815584421 1.8488491754978884
leaf_count=2108 112 58 64 120 71 189 77
internal_value=6.29246e-05 -0.0323734 0.00376718 0.00479921 0.00520865 0.00299625 0.00546956
internal_weight=73.5655 7.54016 66.0254 63.2988 60.048 6.33445 53.7135
internal_count=2799 170 2629 2565 2445 260 2185
is_linear=0
shrinkage=0.00542736


Tree=19
num_leaves=8
num_cat=0
split_feature=331 8 420 20 395 352 32
split_gain=289.704 239.979 54.2516 6.62793 2.01886 0.527726 0.48015
threshold=0.00073033588705584418 409.50000000000006 2.1056775212358052e-09 0.99882847070693981 0.36288569867610937 0.0017502609989605846 72.260395050048842
decision_type=2 2 2 2 2 2 2
left_child=2 -2 3 4 5 6 -1
right_child=1 -3 -4 -5 -6 -7 -8
leaf_value=0.0028129260204593758 -0.057178731041609358 0.0039564641635920729 -0.019716418545004982 -0.0027416856317182179 -0.00050223551141302257 0.0024267208499539937 0.0055658211967033805
leaf_weight=1.9326725341379631 4.4721208512783042 3.2773909904062748 2.7770441547036162 3.259318431839346 1.7709024604409922 1.7285948824137438 54.319819357246161
leaf_count=67 62 108 64 120 58 71 2249
internal_value=6.31453e-05 -0.0313237 0.00376034 0.00479502 0.00520612 0.00538047 0.00547124
internal_weight=73.5379 7.74951 65.7884 63.0113 59.752 57.9811 56.2525
internal_count=2799 170 2629 2565 2445 2387 2316
is_linear=0
shrinkage=0.00542736


Tree=20
num_leaves=9
num_cat=0
split_feature=331 8 420 17 23 395 9 16
split_gain=280.046 206.462 53.1276 5.17662 2.60158 2.04831 0.551109 1.73576
threshold=0.00073033588705584418 387.50000000000006 2.1056775212358052e-09 0.99873828887939464 127.39068984985353 0.36288569867610937 497.00000000000006 86.434173583984389
decision_type=2 2 2 2 2 2 2 2
left_child=2 -2 3 5 -5 6 -1 -8
right_child=1 -3 -4 4 -6 -7 7 -9
leaf_value=0.0055673160576407083 -0.053737336337621282 0.0023417848722935486 -0.019261001342679347 -0.0057398258444619158 0.0030017816999886745 -0.00059401991181679762 -0.00082666138889783312 0.0055626286156430678
leaf_weight=50.493102625012398 4.6366461478173724 3.3174228686839342 2.8271388635039321 1.9172596558928479 2.102653993293643 1.7445561587810505 1.6985508110374201 4.7688388675451279
leaf_count=2087 61 109 64 71 78 57 71 201
internal_value=6.33829e-05 -0.0303483 0.00375352 0.00479083 -0.00116745 0.00519884 0.00537626 0.00388459
internal_weight=73.5062 7.95407 65.5521 62.725 4.01991 58.705 56.9605 6.46739
internal_count=2799 170 2629 2565 149 2416 2359 272
is_linear=0
shrinkage=0.00542736


Tree=21
num_leaves=9
num_cat=0
split_feature=331 8 420 17 19 317 297 32
split_gain=271.002 188.65 52.049 5.16373 2.53855 1.18006 3.5687 0.465618
threshold=0.00073033588705584418 368.50000000000006 2.1056775212358052e-09 0.99873828887939464 73.784046173095717 0.00019183757831342521 0.130363903939724 72.411418914794936
decision_type=2 2 2 2 2 2 2 2
left_child=2 -2 3 5 -5 7 -7 -1
right_child=1 -3 -4 4 -6 6 -8 -9
leaf_value=0.0028887755111342618 -0.051881145944674877 0.00092237574942834481 -0.01882453096234097 -0.0056415416611504815 0.0029860835106013698 -0.0034887851733397019 0.0055620472761640002 0.0055663247797948694
leaf_weight=1.9889634884893883 4.6885894164442998 3.4665375426411629 2.8768522739410392 1.9338433742523182 2.0905347820371389 1.7968797963112582 4.4892930220812559 50.140714889392257
leaf_count=70 58 112 64 71 78 71 190 2085
internal_value=6.35781e-05 -0.0294357 0.00374669 0.00478663 -0.00115977 0.00519629 0.0029749 0.00546417
internal_weight=73.4722 8.15513 65.3171 62.4402 4.02438 58.4159 6.28617 52.1297
internal_count=2799 170 2629 2565 149 2416 261 2155
is_linear=0
shrinkage=0.00542736


Tree=22
num_leaves=9
num_cat=0
split_feature=331 8 420 17 23 395 9 359
split_gain=262.52 174.809 51.0132 5.15088 2.55563 2.0533 0.555808 1.74466
threshold=0.00073033588705584418 368.50000000000006 2.1056775212358052e-09 0.99873828887939464 127.39068984985353 0.36288569867610937 497.00000000000006 0.020839176140725616
decision_type=2 2 2 2 2 2 2 2
left_child=2 -2 3 5 -5 6 -1 -8
right_child=1 -3 -4 4 -6 -7 7 -9
leaf_value=0.0055658328217372231 -0.049479605126453254 0.00091816081622976878 -0.018405843140429923 -0.0056573801311904934 0.0029953104978415728 -0.00061494319270509977 -0.00086752691705164174 0.0055612287631534238
leaf_weight=49.979492854326963 4.8889059014618379 3.463559091091156 2.9261881634593001 1.9311161655932654 2.0976952333003283 1.738933952525257 1.6879895199090231 4.7218209616839886
leaf_count=2087 58 112 64 71 78 57 71 201
internal_value=6.37443e-05 -0.0285809 0.00373986 0.00478242 -0.00115215 0.00519374 0.00537287 0.00386825
internal_weight=73.4357 8.35246 65.0832 62.157 4.02881 58.1282 56.3893 6.40981
internal_count=2799 170 2629 2565 149 2416 2359 272
is_linear=0
shrinkage=0.00542736


Tree=23
num_leaves=10
num_cat=0
split_feature=330 8 420 17 19 10 279 4 31
split_gain=251.029 185.92 50.0095 5.23974 2.40658 0.988325 3.80501 0.126883 0.441866
threshold=0.00073033588705584418 409.50000000000006 2.1056775212358052e-09 0.99873828887939464 73.784046173095717 24798.500000000004 3.2360136174247607e-05 116.50000000000001 82.076633453369155
decision_type=2 2 2 2 2 2 2 2 2
left_child=2 -2 3 5 -5 7 -7 -1 -9
right_child=1 -3 -4 4 -6 6 -8 8 -10
leaf_value=0.0055661098131231422 -0.047585635438196418 0.0040032142674780646 -0.018003865907236322 -0.0055609782963915392 0.0028941097320974488 0.0055662643660247943 -0.0035702478705821042 0.0055710406065168265 0.002367273769068561
leaf_weight=43.841292727738619 5.2622685097157937 3.3791036438196898 2.9751503504812709 1.9476144611835473 2.0201568696647882 5.4469726141542187 1.7819256279617546 5.0487612802535287 1.6934059150516985
leaf_count=1837 62 113 64 71 76 227 73 207 69
internal_value=6.38861e-05 -0.0274124 0.00373051 0.00477717 -0.00125614 0.00519125 0.00331411 0.00545951 0.00476636
internal_weight=73.3967 8.64137 64.7553 61.7801 3.96777 57.8124 7.2289 50.5835 6.74217
internal_count=2799 175 2624 2560 147 2413 300 2113 276
is_linear=0
shrinkage=0.00542736


Tree=24
num_leaves=9
num_cat=0
split_feature=331 25 420 17 23 317 361 9
split_gain=247.156 126.307 49.0599 5.12 2.50856 1.19448 3.55313 0.536951
threshold=0.00073033588705584418 114.69833755493165 2.1056775212358052e-09 0.99873828887939464 127.39068984985353 0.00019183757831342521 0.00063718855381011974 703.00000000000011
decision_type=2 2 2 2 2 2 2 2
left_child=2 -2 3 5 -5 7 -7 -1
right_child=1 -3 -4 4 -6 6 -8 -9
leaf_value=0.0055662917335144663 -0.004042018618631656 -0.045564034046709931 -0.017617614411751033 -0.0055671238811375312 0.0029910791076664615 -0.0034957839374612303 0.0055602974517716675 0.0025514339173182063
leaf_weight=49.548434365540743 3.896854028105734 4.8361179158091545 3.0237423516809931 1.9465017002075899 2.0944071803241968 1.7958938889205445 4.4097482673823833 1.8034523781388987
leaf_count=2078 113 57 64 71 78 72 189 77
internal_value=6.40266e-05 -0.027036 0.00372629 0.00477402 -0.0011314 0.00518862 0.0029395 0.00546041
internal_weight=73.3552 8.73297 64.6222 61.5984 4.04091 57.5575 6.20564 51.3519
internal_count=2799 170 2629 2565 149 2416 261 2155
is_linear=0
shrinkage=0.00542736


Tree=25
num_leaves=9
num_cat=0
split_feature=331 8 420 17 17 395 9 14
split_gain=239.958 139.096 48.1376 5.10732 2.49526 2.06686 0.562866 1.76906
threshold=0.00073033588705584418 334.00000000000006 2.1056775212358052e-09 0.99873828887939464 0.99896022677421581 0.36288569867610937 497.00000000000006 0.73536092042922985
decision_type=2 2 2 2 2 2 2 2
left_child=2 -2 3 5 -5 6 -1 -8
right_child=1 -3 -4 4 -6 -7 7 -9
leaf_value=0.0055636351192865493 -0.044007150077231216 -0.00036681511917619565 -0.017246178437872711 -0.0055399210482028772 0.0029905863291176272 -0.00066243008406489999 0.0055593951391498548 -0.00095822584555500085
leaf_weight=49.223065074533224 5.3053511269390565 3.6188378743827343 3.0719678513705722 1.9511760808527459 2.0940705798566341 1.7262882310897101 4.6600827556103459 1.6649984475225208
leaf_count=2087 56 114 64 71 78 57 201 71
internal_value=6.41066e-05 -0.0263106 0.00371944 0.00476977 -0.001124 0.00518604 0.00536779 0.00384371
internal_weight=73.3158 8.92419 64.3916 61.3197 4.04525 57.2744 55.5481 6.32508
internal_count=2799 170 2629 2565 149 2416 2359 272
is_linear=0
shrinkage=0.00542736


Tree=26
num_leaves=9
num_cat=0
split_feature=8 420 17 405 16 279 395 35
split_gain=215.075 76.5019 8.73922 12.4521 2.28236 13.9747 0.564545 0.517251
threshold=185.50000000000003 2.1056775212358052e-09 0.99873828887939464 3.0193235943443145e-05 76.244670867919936 0.00080543648800812672 0.32514831423759466 72.967422485351577
decision_type=2 2 2 2 2 2 2 2
left_child=-1 2 4 -4 5 7 -6 -2
right_child=1 -3 3 -5 6 -7 -8 -9
leaf_value=-0.031068153508053541 0.0023874054957700149 -0.021578597498507258 0.0055772383887370295 -0.012929137227917664 0.0055618769263735095 -0.0080776590830420186 0.0023613792971225061 0.0055622999130369903
leaf_weight=5.9907107464969149 1.7078760396689201 3.575261626392602 2.2413947135210028 2.050946531817317 40.665211271494627 2.7716720029711714 1.690965300425886 13.148579668253658
leaf_count=81 71 71 86 71 1734 93 68 560
internal_value=0.000104376 0.00285663 0.00421579 -0.00326539 0.00475113 0.00311009 0.0054341 0.00519732
internal_weight=73.8426 67.8519 64.2766 4.29234 59.9843 17.6281 42.3562 14.8565
internal_count=2835 2754 2683 157 2526 724 1802 631
is_linear=0
shrinkage=0.00542736


Tree=27
num_leaves=9
num_cat=0
split_feature=8 420 17 405 330 352 355 32
split_gain=208.086 74.7089 8.69143 12.195 6.58028 1.15547 3.69551 0.597632
threshold=185.50000000000003 2.1056775212358052e-09 0.99873828887939464 3.0193235943443145e-05 0.00074402717291377496 0.00025707116583362227 0.11767592281103136 72.530899047851577
decision_type=2 2 2 2 2 2 2 2
left_child=-1 2 4 -4 5 7 -7 -2
right_child=1 -3 3 -5 -6 6 -8 -9
leaf_value=-0.030151430065504341 0.0022029464180290076 -0.021052906444522995 0.0055764049034013287 -0.012703243376426728 -0.0028148457096935369 -0.0037007191961379187 0.0055585242945448594 0.0055599968314941732
leaf_weight=6.1389366704970589 1.6139767486602057 3.644455198198556 2.2295950874686232 2.0760189704596996 3.2077646367251864 1.7564284875988949 4.5818658117204905 48.55336607247591
leaf_count=81 67 71 86 71 97 71 199 2092
internal_value=0.000104169 0.00284918 0.00420987 -0.00323741 0.00474686 0.00517613 0.00299266 0.00545199
internal_weight=73.8024 67.6635 64.019 4.30561 59.7134 56.5056 6.33829 50.1673
internal_count=2835 2754 2683 157 2526 2429 270 2159
is_linear=0
shrinkage=0.00542736


Tree=28
num_leaves=8
num_cat=0
split_feature=8 420 32 405 330 395 431
split_gain=201.501 72.9938 8.66085 13.4451 4.33575 2.14542 0.565886
threshold=185.50000000000003 2.1056775212358052e-09 73.947887420654311 3.0193235943443145e-05 0.00074402717291377496 0.35625733435153967 0.092776972800493254
decision_type=2 2 2 2 2 2 2
left_child=-1 2 3 -2 5 6 -4
right_child=1 -3 4 -5 -6 -7 -8
leaf_value=-0.029287900419444114 0.0055685697063560169 -0.020550618100824161 0.0055592723323224826 -0.0096876199692789121 -0.0013301887675467184 -0.00068033379429469738 0.0023839925195849299
leaf_weight=6.2852300312370053 3.6370360590517512 3.7130777463316909 50.370673686265945 3.1975073963403702 3.1133662685751906 1.7347481157630671 1.709368998184799
leaf_count=81 148 71 2182 117 95 67 74
internal_value=0.00010395 0.00284174 0.00420394 -0.00156896 0.00489701 0.00525728 0.00545505
internal_weight=73.761 67.4758 63.7627 6.83454 56.9282 53.8148 52.08
internal_count=2835 2754 2683 265 2418 2323 2256
is_linear=0
shrinkage=0.00542736


Tree=29
num_leaves=9
num_cat=0
split_feature=330 24 420 17 405 395 9 16
split_gain=190.432 102.02 54.7582 9.88278 11.8533 1.98537 0.549365 1.84612
threshold=0.00073033588705584418 113.35051345825197 2.1056775212358052e-09 0.99873828887939464 2.9781762350467037e-05 0.36288569867610937 497.00000000000006 86.432292938232436
decision_type=2 2 2 2 2 2 2 2
left_child=2 -2 3 5 -5 6 -1 -8
right_child=1 -3 -4 4 -6 -7 7 -9
leaf_value=0.0055614359847648755 -0.00037436042707897224 -0.037527134008279207 -0.017465404457800305 0.0055746604590666072 -0.012637485306887564 -0.00045001875555096522 -0.0011352674658437114 0.0055565646149296766
leaf_weight=48.598616981878877 3.5655803885310871 5.5907666627317667 3.5073777362704268 2.1277241818606845 2.0834571346640587 1.7863357849419106 1.6213852949440468 4.8373502660542727
leaf_count=2099 109 63 68 83 71 59 70 213
internal_value=0.000103722 -0.0230594 0.00338877 0.00458676 -0.00343569 0.0051811 0.0053638 0.00387666
internal_weight=73.7186 9.15635 64.5622 61.0549 4.21118 56.8437 55.0574 6.45874
internal_count=2835 172 2663 2595 154 2441 2382 283
is_linear=0
shrinkage=0.00542736


Tree=30
num_leaves=9
num_cat=0
split_feature=331 24 420 17 405 395 9 24
split_gain=189.991 89.8726 53.7367 9.53882 11.5594 1.98288 0.550981 1.86044
threshold=0.00073033588705584418 113.41931915283205 2.1056775212358052e-09 0.99873828887939464 3.0193235943443145e-05 0.36288569867610937 497.00000000000006 183.71130371093753
decision_type=2 2 2 2 2 2 2 2
left_child=2 -2 3 5 -5 6 -1 -8
right_child=1 -3 -4 4 -6 -7 7 -9
leaf_value=0.0055603683867552081 -0.0018271805965644932 -0.036667566608470641 -0.017102458862783318 0.0055740352724743562 -0.012150906868961267 -0.00044738860544169066 -0.001180461059396759 0.0055562020578916321
leaf_weight=48.394795706495643 3.5832636505365354 5.5726406648755074 3.562219373881816 2.1959345433861008 2.1399415247142315 1.787083327770232 1.6107234973460425 4.824201563373208
leaf_count=2103 105 60 68 86 71 59 70 213
internal_value=0.000103556 -0.0230324 0.00338699 0.00458444 -0.00317399 0.00517861 0.00536198 0.00386995
internal_weight=73.6708 9.1559 64.5149 60.9527 4.33588 56.6168 54.8297 6.43493
internal_count=2835 165 2670 2602 157 2445 2386 283
is_linear=0
shrinkage=0.00542736


Tree=31
num_leaves=11
num_cat=0
split_feature=330 307 20 47 370 350 352 361 330 352
split_gain=180.962 88.5596 12.7681 6.83889 6.10506 21.2119 5.229 21.2191 0.527548 0.384163
threshold=0.00073033588705584418 0.0022321059368550782 0.99882847070693981 0.87605285644531261 2.928454796347069e-05 3.019323321495904e-05 0.00024354637571377682 1.0495836704649266e-05 3.0281003091658935e-05 0.00011460664609330708
decision_type=2 2 2 2 2 2 2 2 2 2
left_child=2 -2 4 -4 5 -1 8 -8 9 -6
right_child=1 -3 3 -5 6 -7 7 -9 -10 -11
leaf_value=-0.015253830430358164 -0.038099666497500705 -0.0049044723246730315 0.00087155074470528096 -0.012749081586654705 0.0055664424028749023 0.0055630428682449783 -0.016122036992038086 0.0055664466445865344 0.0023531529068047357 0.0033415231023395395
leaf_weight=2.0796334072947493 4.8906147070229036 4.5884193535894156 2.2859348729252806 2.0683253202587366 41.590982193127275 4.7016637865453959 1.7457802593708027 5.5626268051564693 1.6888649836182583 2.4188834130763999
leaf_count=75 45 127 74 69 1776 203 57 239 72 98
internal_value=0.000103379 -0.0220312 0.00337444 -0.00559841 0.00402791 -0.000820908 0.00464823 0.000385656 0.00532992 0.00544416
internal_weight=73.6217 9.47903 64.1427 4.35426 59.7884 6.7813 53.0071 7.30841 45.6987 44.0099
internal_count=2835 172 2663 143 2520 278 2242 296 1946 1874
is_linear=0
shrinkage=0.00542736


Tree=32
num_leaves=8
num_cat=0
split_feature=8 420 32 405 331 395 352
split_gain=181.216 68.1622 8.61315 12.94 4.29357 2.14897 0.586798
threshold=185.50000000000003 2.1056775212358052e-09 73.947887420654311 3.0193235943443145e-05 0.00074402717291377496 0.35625733435153967 0.0017506337608210745
decision_type=2 2 2 2 2 2 2
left_child=-1 2 3 -2 5 6 -4
right_child=1 -3 4 -5 -6 -7 -8
leaf_value=-0.026649943188623435 0.0055659943939828293 -0.019145609028946405 0.0055564211909399069 -0.0093866661212372964 -0.0013069004670980741 -0.00070149584726174623 0.0022624002286531124
leaf_weight=6.7716082893311969 3.5728102885186663 3.9189491383731356 49.558193786069751 3.2606758121401072 3.1152166966348878 1.7289916332811106 1.6458963938057412
leaf_count=81 148 71 2190 117 90 67 71
internal_value=0.000103183 0.00281515 0.0041838 -0.00156884 0.00488517 0.00524959 0.00545054
internal_weight=73.5723 66.8007 62.8818 6.83349 56.0483 52.9331 51.2041
internal_count=2835 2754 2683 265 2418 2328 2261
is_linear=0
shrinkage=0.00542736


Tree=33
num_leaves=9
num_cat=0
split_feature=331 25 420 17 405 395 306 32
split_gain=177.643 84.1797 51.4603 9.45446 11.1582 1.96376 0.571572 0.567139
threshold=0.00073033588705584418 114.69833755493165 2.1056775212358052e-09 0.99873828887939464 3.0193235943443145e-05 0.36288569867610937 1.4135845827212281e-08 72.13006973266603
decision_type=2 2 2 2 2 2 2 2
left_child=2 -2 3 5 -5 6 7 -1
right_child=1 -3 -4 4 -6 -7 -8 -9
leaf_value=0.0023154775342880598 -0.0033578314645790609 -0.035814808469766479 -0.016314961173852772 0.0055725967627473921 -0.011795219944689475 -0.0004077680365863033 0.0021478176109156837 0.0055559941324553695
leaf_weight=1.6422372963279475 4.1659397855401021 5.4111362397670746 3.6871486194431773 2.1753413267433634 2.1832046881318092 1.7980120349675406 1.5861466359347094 50.875592678785324
leaf_count=59 115 50 68 86 71 59 68 2259
internal_value=0.000102939 -0.0216963 0.00336769 0.00457201 -0.00312698 0.00517228 0.00535772 0.00545466
internal_weight=73.5248 9.57708 63.9477 60.2605 4.35855 55.902 54.104 52.5178
internal_count=2835 165 2670 2602 157 2445 2386 2318
is_linear=0
shrinkage=0.00542736


Tree=34
num_leaves=10
num_cat=0
split_feature=8 419 324 362 372 427 30 315 20
split_gain=171.962 42.277 21.101 5.58413 11.5468 18.1227 3.24955 0.59439 0.512878
threshold=185.50000000000003 4.4907734263688333e-05 6.0474118072306744e-05 2.0726782850033491e-06 2.6864629035117108e-05 0.0029811859130859379 114.05571746826173 0.0037147146649658684 0.9972437620162965
decision_type=2 2 2 2 2 2 2 2 2
left_child=-1 2 -2 4 8 -6 -7 -5 -4
right_child=1 -3 3 7 5 6 -8 -9 -10
leaf_value=-0.025446074842639541 -0.010374861672867807 -0.022195277401964711 0.0055738091660395492 0.0055561660827757632 -0.014697644856286482 0.0055796167457445736 -0.0033025218521205708 0.0021953065757080435 0.0023514176912088538
leaf_weight=7.0187849495559922 3.0533600002527228 1.9350219592452038 11.250619674101474 38.833396779373288 2.6660806331783515 3.5954857468605042 1.8312477599829433 1.6145017463713873 1.6709938421845425
leaf_count=81 104 30 462 1729 82 146 69 71 61
internal_value=0.000102746 0.00280131 0.00355104 0.00424285 0.00197324 -0.00311034 0.00258234 0.00542202 0.0051571
internal_weight=73.4695 66.4507 64.5157 61.4623 21.0144 8.09281 5.42673 40.4479 12.9216
internal_count=2835 2754 2724 2620 820 297 215 1800 523
is_linear=0
shrinkage=0.00542736


Tree=35
num_leaves=8
num_cat=0
split_feature=331 8 420 20 352 21 9
split_gain=170.764 76.6148 49.9064 8.3289 2.05867 7.44813 0.53472
threshold=0.00073033588705584418 239.50000000000003 2.1056775212358052e-09 0.99882847070693981 0.00024354637571377682 108.93116760253908 703.00000000000011
decision_type=2 2 2 2 2 2 2
left_child=2 -2 3 4 6 -6 -1
right_child=1 -3 -4 -5 5 -7 -8
leaf_value=0.0055606202238559742 -0.034029332250687869 -0.0033856317031064342 -0.015776347105752167 -0.0034266821677028706 -0.0079251483162836311 0.005553830573766602 0.0025551235707496592
leaf_weight=47.946758626028895 5.6333553045988065 4.1914491541683674 3.7775523774325839 3.6104120183736077 1.60871061682701 4.8426949083805084 1.8095064461231221
leaf_count=2110 44 121 68 128 65 218 81
internal_value=0.000102502 -0.0209561 0.00335582 0.00456403 0.0050773 0.00219274 0.00545132
internal_weight=73.4204 9.8248 63.5956 59.8181 56.2077 6.45141 49.7563
internal_count=2835 165 2670 2602 2474 283 2191
is_linear=0
shrinkage=0.00542736


Tree=36
num_leaves=9
num_cat=0
split_feature=331 25 420 17 32 352 359 9
split_gain=166.863 74.2114 49.0327 9.35549 4.94814 1.19589 3.71196 0.535512
threshold=0.00073033588705584418 114.69833755493165 2.1056775212358052e-09 0.99873828887939464 73.70230865478517 0.00025707116583362227 0.005064059281721712 703.00000000000011
decision_type=2 2 2 2 2 2 2 2
left_child=2 -2 3 5 -5 7 -7 -1
right_child=1 -3 -4 4 -6 6 -8 -9
leaf_value=0.0055595775013488101 -0.0032343268563872745 -0.033208323835119805 -0.015474067864535219 -0.0085564808188707472 0.0029860006276667761 0.0055537976988409886 -0.0038144446888546202 0.0025474769573693825
leaf_weight=47.21708912961185 4.2149629518389684 5.7554146498441696 3.8302970081567755 2.3013381436467162 2.0853337030857801 4.4140247385948888 1.7357602100819347 1.8050996866077174
leaf_count=2093 115 50 68 81 76 199 72 81
internal_value=0.000102292 -0.0205369 0.0033486 0.00455911 -0.00306942 0.00516565 0.00290964 0.00544867
internal_weight=73.3593 9.97038 63.3889 59.5586 4.38667 55.172 6.14978 49.0222
internal_count=2835 165 2670 2602 157 2445 271 2174
is_linear=0
shrinkage=0.00542736


Tree=37
num_leaves=9
num_cat=0
split_feature=330 8 419 387 17 395 10 279
split_gain=159.682 73.4105 27.9988 43.4505 11.069 1.95675 0.608546 1.7085
threshold=0.00073033588705584418 247.50000000000003 1.0000000180025095e-35 1.1395155524951408e-05 0.99873828887939464 0.36288569867610937 24869.000000000004 2.5330036805826243e-05
decision_type=2 2 2 2 2 2 2 2
left_child=2 -2 4 -4 5 6 -1 -8
right_child=1 -3 3 -5 -6 -7 7 -9
leaf_value=0.0055561423149040872 -0.032288521153211902 -0.0029649256338328861 -0.023558633502390309 0.0056579181262592787 -0.0044631410903076332 -0.00042213285852823242 0.0055554280483023693 -0.00094455704788638502
leaf_weight=45.591777220368385 5.8766460567712766 4.395929291844368 2.7761576138436785 3.2602197043597698 3.7781812343746415 1.7933912239968766 4.1585711110383263 1.6692929677665231
leaf_count=2053 44 128 58 100 134 59 186 73
internal_value=0.00010208 -0.0197401 0.00333607 -0.00777891 0.00451334 0.00515068 0.00534505 0.00369362
internal_weight=73.3002 10.2726 63.0276 6.03638 56.9912 53.213 51.4196 5.82786
internal_count=2835 172 2663 158 2505 2371 2312 259
is_linear=0
shrinkage=0.00542736


Tree=38
num_leaves=9
num_cat=0
split_feature=331 8 419 387 16 29 395 432
split_gain=159.535 67.0706 27.7213 42.0146 9.38689 8.41456 2.11765 0.615067
threshold=0.00073033588705584418 239.50000000000003 1.0000000180025095e-35 1.1395155524951408e-05 73.92343902587892 127.1391944885254 0.36288569867610937 0.092081662267446532
decision_type=2 2 2 2 2 2 2 2
left_child=2 -2 4 -4 5 -1 7 -6
right_child=1 -3 3 -5 6 -7 -8 -9
leaf_value=-0.0095511544700736008 -0.03142729386112094 -0.0032527823339214904 -0.022947764014448268 0.0056566361453422248 0.0055537116764524342 0.0038319042827517176 -0.00068446659461080547 0.002106034970078427
leaf_weight=2.5070053134113541 6.0045636966824514 4.250732135027647 2.8344287965446702 3.2433061338961124 48.014988476410508 3.0890493169426918 1.7182384431362141 1.5741901583969582
leaf_count=93 44 121 58 100 2178 114 56 71
internal_value=0.000101879 -0.0197492 0.00333425 -0.00768339 0.00451102 -0.00216364 0.00523902 0.00544427
internal_weight=73.2365 10.2553 62.9812 6.07773 56.9035 5.59605 51.3074 49.5892
internal_count=2835 165 2670 158 2512 207 2305 2249
is_linear=0
shrinkage=0.00542736


Tree=39
num_leaves=9
num_cat=0
split_feature=331 8 420 20 29 395 10 418
split_gain=161.248 71.1065 47.4221 4.28897 5.17955 1.90596 0.583868 1.74569
threshold=0.00073033588705584418 253.50000000000003 2.1056775212358052e-09 0.99829286336898815 127.40697479248048 0.36288569867610937 24869.000000000004 3.0193235943443145e-05
decision_type=2 2 2 2 2 2 2 2
left_child=2 -2 3 5 -5 6 -1 -8
right_child=1 -3 -4 4 -6 -7 7 -9
leaf_value=0.0055551199123679788 -0.031968658938199723 -0.0030586914981654174 -0.014629743002372689 -0.0059246901774718183 0.0055898958406483288 -0.00028846554862492111 0.0055527278725413807 -0.00098767949430705838
leaf_weight=45.771473111584783 5.9212765321135503 4.3449839614331722 3.9852971248328677 2.357488675042986 2.2480266503989697 1.8310438860207785 4.3855641465634099 1.6559929270297287
leaf_count=2079 44 123 68 87 81 59 199 70
internal_value=0.00019536 -0.0197331 0.00348276 0.00472197 -0.000304234 0.00515349 0.0053458 0.00376
internal_weight=72.5011 10.2663 62.2349 58.2496 4.60552 53.6441 51.813 6.04156
internal_count=2810 167 2643 2575 168 2407 2348 269
is_linear=0
shrinkage=0.00542736


Tree=40
num_leaves=9
num_cat=0
split_feature=330 8 420 20 405 395 9 45
split_gain=154.651 70.6567 46.6357 4.37188 5.38214 1.9036 0.587499 1.92003
threshold=0.00073033588705584418 253.50000000000003 2.1056775212358052e-09 0.99829286336898815 3.0193235943443145e-05 0.36288569867610937 497.00000000000006 6.5806775093078622
decision_type=2 2 2 2 2 2 2 2
left_child=2 -2 3 5 -5 6 -1 -8
right_child=1 -3 -4 4 -6 -7 7 -9
leaf_value=0.0055553110091603655 -0.031129078280628365 -0.0027437722795829668 -0.014365513589823515 0.0055722620856017771 -0.0062597026341500717 -0.0002868232174632821 -0.0014594622930228787 0.0055493886507988928
leaf_weight=45.432069875299931 6.0476236194372159 4.5090605858713388 4.0364314205944529 2.2423573751002541 2.2878986056894064 1.8315327167510975 1.5478202644735564 4.494226485490799
leaf_count=2065 44 129 68 89 77 59 70 209
internal_value=0.000194734 -0.0190049 0.00347058 0.00471539 -0.000403192 0.0051504 0.00534386 0.0037539
internal_weight=72.429 10.5567 61.8723 57.8359 4.53026 53.3056 51.4741 6.04205
internal_count=2810 173 2637 2569 166 2403 2344 279
is_linear=0
shrinkage=0.00542736


Tree=41
num_leaves=9
num_cat=0
split_feature=330 8 420 20 405 395 10 8
split_gain=151.43 67.5484 45.8916 4.36369 6.53622 1.90146 0.585935 1.78041
threshold=0.00073033588705584418 253.50000000000003 2.1056775212358052e-09 0.99829286336898815 3.0204907488950997e-05 0.36288569867610937 24869.000000000004 426.50000000000006
decision_type=2 2 2 2 2 2 2 2
left_child=2 -2 3 5 -5 6 -1 -8
right_child=1 -3 -4 4 -6 -7 7 -9
leaf_value=0.0055537399822679929 -0.030336748841324264 -0.00272204547813249 -0.014109668987392757 0.0055736811594209699 -0.0075116779031016 -0.00028519066070666668 0.0055569693329291982 -0.0010804820445559529
leaf_weight=45.204659305512905 6.1715497896075231 4.5203525051474571 4.0871778652071944 2.4627526067197314 2.0691567957401276 1.8320189062505949 4.3718330115079871 1.6358250752091406
leaf_count=2075 44 129 68 97 69 59 196 73
internal_value=0.000194108 -0.0186617 0.00346355 0.00471102 -0.000400767 0.00514775 0.00534211 0.00374966
internal_weight=72.3553 10.6919 61.6634 57.5762 4.53191 53.0443 51.2123 6.00766
internal_count=2810 173 2637 2569 166 2403 2344 269
is_linear=0
shrinkage=0.00542736


Tree=42
num_leaves=8
num_cat=0
split_feature=331 314 420 16 29 395 305
split_gain=151.336 62.3248 45.189 4.08368 6.73086 2.17938 0.61098
threshold=0.00073033588705584418 0.0022321059368550782 2.1056775212358052e-09 73.92343902587892 126.93215942382814 0.36288569867610937 0.0046965067740529784
decision_type=2 2 2 2 2 2 2
left_child=2 -2 3 4 -1 6 -5
right_child=1 -3 -4 5 -6 -7 -8
leaf_value=-0.0053803541661661784 -0.030613806021792984 -0.0042639779920481706 -0.013861814385475018 0.0055512111997964514 0.0055828018882344496 -0.00087139057117812595 0.0021217271572421372
leaf_weight=2.9640776235610238 5.8366330340504629 4.8340797442942858 4.1375400796532622 47.541160179302096 3.7197285816073418 1.6658242754638184 1.581084620207547
leaf_count=110 46 121 68 2199 142 53 71
internal_value=0.000193484 -0.0186767 0.00346179 0.00470896 0.000720955 0.00523379 0.00544083
internal_weight=72.2801 10.6707 61.6094 57.4719 6.68381 50.7881 49.1222
internal_count=2810 167 2643 2575 252 2323 2270
is_linear=0
shrinkage=0.00542736


Tree=43
num_leaves=11
num_cat=0
split_feature=330 8 419 359 30 44 279 352 375 367
split_gain=145.312 62.5999 26.5465 8.80177 4.38054 2.08067 3.48641 0.550796 1.78231 0.523045
threshold=0.00073033588705584418 253.50000000000003 4.4907734263688333e-05 2.0878802615698082e-06 130.21761322021487 -2.8713378906249996 3.2716745408833965e-05 0.00025707116583362227 0.0054369880817830571 3.7052890486100388e-17
decision_type=2 2 2 2 2 2 2 2 2 2
left_child=2 -2 3 -1 5 7 -7 9 -9 -5
right_child=1 -3 -4 4 -6 6 -8 8 -10 -11
leaf_value=-0.0047374729309681007 -0.028961336778969966 -0.0026449290998733933 -0.016125293636176603 0.0025910467969957295 -0.0039826550429280672 0.0055842954020819818 -0.0029904432232076895 0.0055479108614291412 -0.0012140638160063539 0.0055601131453499406
leaf_weight=3.1424277275800696 6.3978973403573018 4.5604180134832859 1.9749496392905701 1.824966140091411 1.7000153120607127 3.1205138973891797 2.5284787472337484 4.0550835728645316 1.6017145570367572 41.300859771668911
leaf_count=111 44 129 29 83 67 126 94 191 68 1868
internal_value=0.000192851 -0.0180095 0.00344951 0.00410172 0.00459657 0.00486451 0.00174626 0.0052256 0.00363327 0.00543447
internal_weight=72.2073 10.9583 61.249 59.2741 56.1316 54.4316 5.64899 48.7826 5.6568 43.1258
internal_count=2810 173 2637 2608 2497 2430 220 2210 259 1951
is_linear=0
shrinkage=0.00542736


Tree=44
num_leaves=9
num_cat=0
split_feature=331 307 420 20 405 317 40 32
split_gain=145.269 57.625 44.1256 4.27816 6.44975 1.26544 3.78821 0.475361
threshold=0.00073033588705584418 0.0022321059368550782 2.1056775212358052e-09 0.99829286336898815 3.0222436180338267e-05 0.00019183757831342521 75.312549591064467 72.260395050048842
decision_type=2 2 2 2 2 2 2 2
left_child=2 -2 3 5 -5 7 -7 -1
right_child=1 -3 -4 4 -6 6 -8 -9
leaf_value=0.0027937296583961596 -0.029220520804592868 -0.0041559551965587478 -0.013502522260056883 0.0055727150484516201 -0.0073423594765169679 0.0055487375467690569 -0.0041080893825045017 0.0055526490182549156
leaf_weight=1.9186358433216799 6.0519984737038595 4.8809900674968958 4.2125563919544211 2.4950205124914637 2.0957371164113283 4.1355822645127764 1.6837550178170202 44.657142572104931
leaf_count=70 46 121 68 99 69 194 72 2071
internal_value=0.00019221 -0.0180305 0.00344767 0.00470068 -0.000323175 0.00514086 0.00275465 0.005439
internal_weight=72.1314 10.933 61.1984 56.9859 4.59076 52.3951 5.81934 46.5758
internal_count=2810 167 2643 2575 168 2407 266 2141
is_linear=0
shrinkage=0.00542736


Tree=45
num_leaves=9
num_cat=0
split_feature=331 17 420 17 35 395 432 13
split_gain=142.361 55.2929 43.4551 4.80631 2.59733 1.94731 0.591998 0.513743
threshold=0.00073033588705584418 0.97188624739646923 2.1056775212358052e-09 0.99873828887939464 73.761470794677749 0.36288569867610937 0.092081662267446532 74.822990417480483
decision_type=2 2 2 2 2 2 2 2
left_child=2 -2 3 5 -5 6 7 -1
right_child=1 -3 -4 4 -6 -7 -8 -9
leaf_value=0.0025995476099408893 -0.0034296657937317667 -0.028021800972716882 -0.013273163261874622 -0.0054397465477062975 0.0031346928663178886 -0.00041905068300959947 0.0020104726483905345 0.005549271863891799
leaf_weight=1.8054484501481045 4.6344741061329824 6.4290653616189957 4.2619546651840201 1.9688678979873646 2.2072220463305712 1.7918322533369053 1.5276347659528244 47.429699212312698
leaf_count=69 114 53 68 73 78 58 69 2228
internal_value=0.00019158 -0.0177203 0.00344063 0.00469627 -0.00090783 0.00514159 0.00533787 0.00544111
internal_weight=72.0562 11.0635 60.9927 56.7307 4.17609 52.5546 50.7628 49.2351
internal_count=2810 167 2643 2575 151 2424 2366 2297
is_linear=0
shrinkage=0.00542736


Tree=46
num_leaves=9
num_cat=0
split_feature=331 307 324 368 405 368 358 11
split_gain=139.519 53.7564 18.0913 7.61093 39.4031 2.4927 1.98201 1.25081
threshold=0.00073033588705584418 0.0022321059368550782 6.0474118072306744e-05 0.010844513308256866 0.10006320104002954 1.2511555951277844e-06 0.036754790693521507 0.99781024456024181
decision_type=2 2 2 2 2 2 2 2
left_child=2 -2 -1 5 -5 -4 -6 -7
right_child=1 -3 3 4 6 7 -8 -9
leaf_value=-0.0087402020038629194 -0.027982700446637067 -0.0040305468799325447 -0.0019603148146800377 -0.024872693132409376 -0.0010141587925933929 0.0055571136406974992 0.0055703022161872071 0.0018532528483540759
leaf_weight=3.3949825335293999 6.2563270777463895 4.9389368314296007 1.4280339945107687 1.5935176871716965 1.6431343797594289 42.398604286834598 7.4620795771479607 2.8673355951905242
leaf_count=112 46 121 52 37 66 1955 329 92
internal_value=0.000190942 -0.0174159 0.00343359 0.00415371 2.47284e-05 0.00509977 0.00438206 0.0053225
internal_weight=71.983 11.1953 60.7877 57.3927 10.6987 46.694 9.10521 45.2659
internal_count=2810 167 2643 2531 432 2099 395 2047
is_linear=0
shrinkage=0.00542736


Tree=47
num_leaves=9
num_cat=0
split_feature=331 307 419 427 20 395 9 26
split_gain=136.809 51.6117 25.4323 47.8361 4.9596 4.28191 0.610946 1.98215
threshold=0.00073033588705584418 0.0022321059368550782 1.0000000180025095e-35 1.0000000180025095e-35 0.99885606765747081 0.36288569867610937 497.00000000000006 128.81936645507815
decision_type=2 2 2 2 2 2 2 2
left_child=2 -2 4 -4 5 6 -1 -8
right_child=1 -3 3 -5 -6 -7 7 -9
leaf_value=0.0055514049062239026 -0.027352574508770156 -0.0039947646109448559 0.0056651698395026187 -0.024083277131765422 -0.0025816378711851916 -0.0030048450233722004 -0.0017037982080613141 0.0055449034885507089
leaf_weight=43.674455454573035 6.3654149621725065 4.9560839254409075 3.8418140094727269 2.7191805094480515 2.6548849157989016 1.8840792253613461 1.4965869057923544 4.3151683807373047
leaf_count=2047 46 121 121 43 93 61 70 208
internal_value=0.00019032 -0.0171275 0.00342643 -0.00666397 0.00465184 0.00502568 0.00533142 0.00367829
internal_weight=71.9077 11.3215 60.5862 6.56099 54.0252 51.3703 49.4862 5.81176
internal_count=2810 167 2643 164 2479 2386 2325 278
is_linear=0
shrinkage=0.00542736


Tree=48
num_leaves=9
num_cat=0
split_feature=331 17 420 17 29 395 432 13
split_gain=134.192 50.2914 41.9404 4.78556 5.57943 1.94252 0.598116 0.518869
threshold=0.00073033588705584418 0.97188624739646923 2.1056775212358052e-09 0.99873828887939464 127.40697479248048 0.36288569867610937 0.092081662267446532 74.822990417480483
decision_type=2 2 2 2 2 2 2 2
left_child=2 -2 3 5 -5 6 7 -1
right_child=1 -3 -4 4 -6 -7 -8 -9
leaf_value=0.0025679064909630337 -0.0032525379049905506 -0.026368416874812582 -0.012764136371952187 -0.0069585857750281829 0.0055920684393959263 -0.00041762780700473436 0.0019706449754057546 0.005547446814139728
leaf_weight=1.7874578591436137 4.7133446317166072 6.7322208248078823 4.3751665614545336 2.1626779176294795 2.0159218218177557 1.792257735505699 1.5113421957939852 46.738065773621202
leaf_count=69 114 53 68 79 72 58 69 2228
internal_value=0.000189719 -0.0168492 0.00341944 0.00468365 -0.000903654 0.00513412 0.00533297 0.00543769
internal_weight=71.8285 11.4456 60.3829 56.0077 4.1786 51.8291 50.0369 48.5255
internal_count=2810 167 2643 2575 151 2424 2366 2297
is_linear=0
shrinkage=0.00542736


Tree=49
num_leaves=9
num_cat=0
split_feature=331 307 420 17 29 395 317 9
split_gain=131.628 48.3998 41.33 4.77427 5.50729 1.94008 0.627138 0.576045
threshold=0.00073033588705584418 0.0022321059368550782 2.1056775212358052e-09 0.99873828887939464 127.40697479248048 0.36288569867610937 0.00123830430675298 703.00000000000011
decision_type=2 2 2 2 2 2 2 2
left_child=2 -2 3 5 -5 6 7 -1
right_child=1 -3 -4 4 -6 -7 -8 -9
leaf_value=0.0055493076433883364 -0.026278433108112773 -0.0038771307056593009 -0.012556362558165352 -0.0068754810693537269 0.0055911510590202513 -0.00041520019231126664 0.0018199186145254115 0.0023131814123531279
leaf_weight=46.649216005578637 6.5590554811060411 5.0119067281484604 4.4232927002012721 2.1768999677151433 2.0053383987396955 1.7929507307708252 1.4545359387993801 1.6785530783236016
leaf_count=2219 46 121 68 79 72 58 67 80
internal_value=0.000189086 -0.0165754 0.0034124 0.00467921 -0.000897865 0.00513146 0.00533123 0.00543691
internal_weight=71.7517 11.571 60.1808 55.7575 4.18224 51.5753 49.7823 48.3278
internal_count=2810 167 2643 2575 151 2424 2366 2299
is_linear=0
shrinkage=0.00542736


Tree=50
num_leaves=9
num_cat=0
split_feature=331 17 420 17 405 352 28 9
split_gain=129.179 47.1706 40.7359 4.76299 5.9883 1.28939 3.81063 0.577274
threshold=0.00073033588705584418 0.97188624739646923 2.1056775212358052e-09 0.99873828887939464 1.0000000180025095e-35 0.00025707116583362227 120.14552688598634 703.00000000000011
decision_type=2 2 2 2 2 2 2 2
left_child=2 -2 3 5 -5 7 -7 -1
right_child=1 -3 -4 4 -6 6 -8 -9
leaf_value=0.0055522417210837182 -0.0031555634344799235 -0.025346795685187853 -0.012354437822548421 0.0055696163420162811 -0.0074136337341933435 -0.004208641156571236 0.0055452097294055886 0.0023057397547094852
leaf_weight=43.941650569438934 4.7578066457062942 6.9330850504338741 4.471057627350091 2.1025594733655444 2.0832874607294798 1.666571520268916 4.0397591255605221 1.674841035157441
leaf_count=2077 114 53 68 85 66 72 195 80
internal_value=0.000188459 -0.0163157 0.00340535 0.00467476 -0.000892121 0.00512879 0.00269653 0.00543304
internal_weight=71.6706 11.6909 59.9797 55.5087 4.18585 51.3228 5.70633 45.6165
internal_count=2810 167 2643 2575 151 2424 267 2157
is_linear=0
shrinkage=0.00542736


Tree=51
num_leaves=9
num_cat=0
split_feature=331 307 420 17 405 395 9 45
split_gain=126.779 45.5913 40.1574 4.75154 5.90859 1.94556 0.619052 1.99201
threshold=0.00073033588705584418 0.0022320972057059412 2.1056775212358052e-09 0.99873828887939464 1.0000000180025095e-35 0.36288569867610937 497.00000000000006 6.5806775093078622
decision_type=2 2 2 2 2 2 2 2
left_child=2 -2 3 5 -5 6 -1 -8
right_child=1 -3 -4 4 -6 -7 7 -9
leaf_value=0.0055485301406831044 -0.026163623041644376 -0.0048074775648704986 -0.012158117576483154 0.0055688264349086228 -0.0073223860315423149 -0.00043765464431663151 -0.0017581891480370159 0.0055425062337142511
leaf_weight=43.548785133287311 6.2237453013658506 5.5884799361228943 4.5184644982218733 2.0914748199284068 2.0977609194815159 1.7865894623100746 1.485611556097864 4.2509997822344303
leaf_count=2087 38 129 68 85 66 58 70 209
internal_value=0.000187832 -0.0160598 0.0033983 0.00467028 -0.000886452 0.00512608 0.00532776 0.00365184
internal_weight=71.5919 11.8122 59.7797 55.2612 4.18924 51.072 49.2854 5.73661
internal_count=2810 167 2643 2575 151 2424 2366 279
is_linear=0
shrinkage=0.00542736


Tree=52
num_leaves=9
num_cat=0
split_feature=331 420 307 17 17 352 362 9
split_gain=128.1 49.9651 43.608 4.82623 5.71017 1.27795 3.87482 0.586855
threshold=0.00073033588705584418 2.1056775212358052e-09 0.0022321059368550782 0.99873828887939464 0.99896022677421581 0.00025707116583362227 0.015519395470619203 703.00000000000011
decision_type=2 2 2 2 2 2 2 2
left_child=1 3 -2 5 -5 7 -7 -1
right_child=2 -3 -4 4 -6 6 -8 -9
leaf_value=0.0055513407510236028 -0.024403712788385299 -0.014714050539824572 -0.0040922204462520897 -0.0071846494096791148 0.0055822025634342789 -0.0043171467580408792 0.0055419780136104326 0.0022510209822825126
leaf_weight=43.427476182579994 7.2699192278087121 4.2200423516333094 5.4460002928972244 2.122175056487321 2.0087431389838457 1.6472251769155253 4.0892597418278456 1.6472695283591736
leaf_count=2073 48 63 128 72 76 68 202 79
internal_value=-7.63377e-05 0.00328271 -0.0157047 0.00466502 -0.000976508 0.00512367 0.00271094 0.00543073
internal_weight=71.8781 59.1622 12.7159 54.9421 4.13092 50.8112 5.73648 45.0747
internal_count=2809 2633 176 2570 148 2422 270 2152
is_linear=0
shrinkage=0.00542736


Tree=53
num_leaves=9
num_cat=0
split_feature=330 8 419 283 17 352 355 9
split_gain=124.509 52.1427 29.1839 38.2817 5.80746 1.27013 4.29981 0.587096
threshold=0.00073033588705584418 253.50000000000003 1.0000000180025095e-35 1.0000000180025095e-35 0.99873828887939464 0.00025707116583362227 0.11762695014476778 703.00000000000011
decision_type=2 2 2 2 2 2 2 2
left_child=2 -2 4 -4 5 7 -7 -1
right_child=1 -3 3 -5 -6 6 -8 -9
leaf_value=0.0055509091278266448 -0.024093711917212456 -0.0017696918227155685 -0.02065575068112567 0.0056490220443878867 -0.0021094861859877715 -0.0050941843720277999 0.0055422555147260988 0.0022436467884429712
leaf_weight=41.475535528734326 7.8507961779832822 5.073730455711484 3.2726337276399127 3.2461434714496136 3.522705625742673 1.5271264407783736 4.1944551412016153 1.6437234729528416
leaf_count=1993 47 134 51 110 125 63 207 79
internal_value=-7.58129e-05 -0.0153301 0.00327246 -0.00755681 0.0046206 0.00510602 0.00270332 0.00542483
internal_weight=71.8069 12.9245 58.8823 6.51878 52.3635 48.8408 5.72158 43.1193
internal_count=2809 181 2628 161 2467 2342 270 2072
is_linear=0
shrinkage=0.00542736


Tree=54
num_leaves=9
num_cat=0
split_feature=330 420 431 17 412 395 9 41
split_gain=122.345 48.4467 41.1465 4.9715 6.02025 1.93688 0.648043 2.00841
threshold=0.00073033588705584418 2.1056775212358052e-09 0.00038992887130007153 0.99873828887939464 3.0517575396515898e-05 0.36288569867610937 497.00000000000006 29.441792488098148
decision_type=2 2 2 2 2 2 2 2
left_child=1 3 -2 5 -5 6 -1 -8
right_child=2 -3 -4 4 -6 -7 7 -9
leaf_value=0.0055476429860427086 -0.024129116957483154 -0.014231446951074787 -0.0048013808566863114 0.0055805857239892764 -0.0076936697850304202 -0.00042421872381548077 -0.0018845006483039553 0.0055411387745796618
leaf_weight=43.055213328450918 6.9566482976078969 4.3185003101825705 6.0802874397486448 1.9853777289390553 2.0409960877150297 1.7906627599149931 1.4607678335160006 4.0407853852957487
leaf_count=2091 42 63 139 76 69 58 70 201
internal_value=-7.52857e-05 0.00326536 -0.0151149 0.004655 -0.00114822 0.00511909 0.00532352 0.00356949
internal_weight=71.7292 58.6923 13.0369 54.3738 4.02637 50.3474 48.5568 5.50155
internal_count=2809 2628 181 2565 145 2420 2362 271
is_linear=0
shrinkage=0.00542736


Tree=55
num_leaves=9
num_cat=0
split_feature=331 420 25 17 17 395 9 16
split_gain=121.48 47.6896 40.3572 4.78239 5.61651 1.93389 0.649457 2.03229
threshold=0.00073033588705584418 2.1056775212358052e-09 114.69833755493165 0.99873828887939464 0.99896022677421581 0.36288569867610937 497.00000000000006 86.434173583984389
decision_type=2 2 2 2 2 2 2 2
left_child=1 3 -2 5 -5 6 -1 -8
right_child=2 -3 -4 4 -6 -7 7 -9
leaf_value=0.0055463165830311476 -0.0033675241125824856 -0.013984283981723999 -0.022838681055679131 -0.0070562875946059292 0.0055820055769418078 -0.00042175023316408513 -0.0019574200349380716 0.0055404106564286848
leaf_weight=42.801726987585425 5.2292712070047838 4.3708303160965434 7.8313822448253632 2.1433333139866582 2.0044349376112223 1.791366335004567 1.4464621264487494 4.0363115929067135
leaf_count=2093 122 63 54 72 76 58 69 202
internal_value=-7.478e-05 0.00326157 -0.0150427 0.00465171 -0.000948753 0.0051156 0.00532103 0.00356234
internal_weight=71.6551 58.5945 13.0607 54.2236 4.14777 50.0759 48.2845 5.48277
internal_count=2809 2633 176 2570 148 2422 2364 271
is_linear=0
shrinkage=0.00542736


Tree=56
num_leaves=8
num_cat=0
split_feature=331 420 307 395 11 10 418
split_gain=119.349 46.9427 39.0955 4.59235 2.56644 0.614085 1.88079
threshold=0.00073033588705584418 2.1056775212358052e-09 0.0022321059368550782 0.34819000959396368 0.99781024456024181 24869.000000000004 3.0193235943443145e-05
decision_type=2 2 2 2 2 2 2
left_child=1 3 -2 4 5 -1 -7
right_child=2 -3 -4 -5 -6 6 -8
leaf_value=0.0055456954799082822 -0.022808520847764833 -0.013744681665399753 -0.0038771297964708558 -0.0021058734109917067 0.00013301192674114529 0.0055425674727852779 -0.0014652341145097536
leaf_weight=42.460514726117253 7.6225360520184022 4.4227455109357825 5.5547816231846809 2.8117645587772122 2.9829695615917435 4.1826670207083216 1.5447536446154115
leaf_count=2087 48 63 128 100 108 206 69
internal_value=-7.42733e-05 0.00325447 -0.0148282 0.00464719 0.00501826 0.00532068 0.00365248
internal_weight=71.5827 58.4054 13.1773 53.9827 51.1709 48.1879 5.72742
internal_count=2809 2633 176 2570 2470 2362 275
is_linear=0
shrinkage=0.00542736


Tree=57
num_leaves=8
num_cat=0
split_feature=331 420 25 395 1 38 305
split_gain=117.3 46.2172 38.1055 4.57567 2.9961 6.45196 0.678591
threshold=0.00073033588705584418 2.1056775212358052e-09 114.91513824462892 0.34819000959396368 74.436763763427749 73.133029937744155 0.0047734654508531102
decision_type=2 2 2 2 2 2 2
left_child=1 3 -2 4 5 -1 -6
right_child=2 -3 -4 -5 6 -7 -8
leaf_value=0.0055670235729664824 -0.0037537406748992591 -0.013512295801202757 -0.022393868961206587 -0.0020903190282978673 0.0055452151784611617 -0.007944682689572484 0.0017369455265731557
leaf_weight=2.9641392789781085 5.5400112904608232 4.4742497354745856 7.7491368055343628 2.8172979559749356 44.935164304450154 1.6044835671782491 1.4218690320849408
leaf_count=135 124 63 52 100 2209 61 65
internal_value=-7.37861e-05 0.00324737 -0.0146231 0.00464266 0.00501514 0.000821762 0.00542841
internal_weight=71.5064 58.2172 13.2891 53.743 50.9257 4.56862 46.357
internal_count=2809 2633 176 2570 2470 196 2274
is_linear=0
shrinkage=0.00542736


Tree=58
num_leaves=9
num_cat=0
split_feature=331 420 314 17 17 395 9 25
split_gain=115.283 45.5122 37.2891 4.77615 5.53965 1.91923 0.658014 2.09466
threshold=0.00073033588705584418 2.1056775212358052e-09 0.0022321059368550782 0.99873828887939464 0.99896022677421581 0.36288569867610937 497.00000000000006 160.6665954589844
decision_type=2 2 2 2 2 2 2 2
left_child=1 3 -2 5 -5 6 -1 -8
right_child=2 -3 -4 4 -6 -7 7 -9
leaf_value=0.0055444639568714123 -0.022108195431063658 -0.01328680267512884 -0.0037604514539209648 -0.0069868032986549252 0.0055804887189838826 -0.00039494105867400912 -0.0021540028767144267 0.0055393418892464991
leaf_weight=42.157047027722001 7.786658547818659 4.525346875190734 5.6161362137645483 2.1549495887011281 1.9847692400217054 1.7990418877452601 1.4100778196007002 3.9986519683152437
leaf_count=2093 48 63 128 72 76 58 69 202
internal_value=-7.32927e-05 0.00324027 -0.01442 0.00463811 -0.000961473 0.00510769 0.00531581 0.00353366
internal_weight=71.4327 58.0299 13.4028 53.5045 4.13972 49.3648 47.5658 5.40873
internal_count=2809 2633 176 2570 148 2422 2364 271
is_linear=0
shrinkage=0.00542736


Tree=59
num_leaves=11
num_cat=0
split_feature=8 419 361 410 372 427 30 39 29 306
split_gain=95.406 39.6583 10.6368 12.6432 13.2778 27.6968 3.54787 1.75663 1.09995 0.660577
threshold=185.50000000000003 4.4907734263688333e-05 5.9172766686543818e-09 2.8492915589595217e-05 0.00074402976315468561 0.0031237119110301141 115.23132705688478 73.446586608886733 127.74731826782228 1.3880790739051465e-08
decision_type=2 2 2 2 2 2 2 2 2 2
left_child=-1 2 3 4 7 -6 -7 -2 9 -4
right_child=1 -3 8 -5 5 6 -8 -9 -10 -11
leaf_value=-0.016258754281263599 2.8253216114573851e-06 -0.017911118406743837 0.0055463088781194112 -0.012264205671536401 -0.021666913591876526 0.0055735773078550719 -0.004094510772597061 0.005583574639370076 0.0019631390239282279 0.0018047930426646319
